{"learner":{"attributes":{},"feature_names":["seleccion.Masculina","edad_anos","peso_kg","altura_corporal_cm","raza.Caucásico.europeo","raza.Latinoamericano","min_entreno_pista","x1_partido.1.10.","x1_partido.10.20.","x1_partido.20.30.","x2_partidos.10.20.","x2_partidos.20.30.","cual_es_tu_percepcion_de_fatiga_despues_de_la_ultima_competicion_entrenamiento_de_la_semana.3","cual_es_tu_percepcion_de_fatiga_despues_de_la_ultima_competicion_entrenamiento_de_la_semana.4","cual_es_tu_percepcion_de_fatiga_despues_de_la_ultima_competicion_entrenamiento_de_la_semana.5","cual_es_tu_percepcion_de_fatiga_despues_de_la_ultima_competicion_entrenamiento_de_la_semana.6","cual_es_tu_percepcion_de_fatiga_despues_de_la_ultima_competicion_entrenamiento_de_la_semana.7","cual_es_tu_percepcion_de_fatiga_despues_de_la_ultima_competicion_entrenamiento_de_la_semana.8","lesiones_previas.Sí","perc_fatiga","loc_hombro_clavicula.1","loc_brazo.1","loc_rodilla.1","loc_tobillo.1","loc_dorso.1","loc_columna_lumbar.1","loc_cara.1","est_musculo.1","est_ligamento.1","est_hueso.1","est_menisco.1"],"feature_types":[],"gradient_booster":{"model":{"cats":{"enc":[],"feature_segments":[],"sorted_idx":[]},"gbtree_model_param":{"num_parallel_tree":"1","num_trees":"450"},"iteration_indptr":[0,3,6,9,12,15,18,21,24,27,30,33,36,39,42,45,48,51,54,57,60,63,66,69,72,75,78,81,84,87,90,93,96,99,102,105,108,111,114,117,120,123,126,129,132,135,138,141,144,147,150,153,156,159,162,165,168,171,174,177,180,183,186,189,192,195,198,201,204,207,210,213,216,219,222,225,228,231,234,237,240,243,246,249,252,255,258,261,264,267,270,273,276,279,282,285,288,291,294,297,300,303,306,309,312,315,318,321,324,327,330,333,336,339,342,345,348,351,354,357,360,363,366,369,372,375,378,381,384,387,390,393,396,399,402,405,408,411,414,417,420,423,426,429,432,435,438,441,444,447,450],"tree_info":[0,1,2,0,1,2,0,1,2,0,1,2,0,1,2,0,1,2,0,1,2,0,1,2,0,1,2,0,1,2,0,1,2,0,1,2,0,1,2,0,1,2,0,1,2,0,1,2,0,1,2,0,1,2,0,1,2,0,1,2,0,1,2,0,1,2,0,1,2,0,1,2,0,1,2,0,1,2,0,1,2,0,1,2,0,1,2,0,1,2,0,1,2,0,1,2,0,1,2,0,1,2,0,1,2,0,1,2,0,1,2,0,1,2,0,1,2,0,1,2,0,1,2,0,1,2,0,1,2,0,1,2,0,1,2,0,1,2,0,1,2,0,1,2,0,1,2,0,1,2,0,1,2,0,1,2,0,1,2,0,1,2,0,1,2,0,1,2,0,1,2,0,1,2,0,1,2,0,1,2,0,1,2,0,1,2,0,1,2,0,1,2,0,1,2,0,1,2,0,1,2,0,1,2,0,1,2,0,1,2,0,1,2,0,1,2,0,1,2,0,1,2,0,1,2,0,1,2,0,1,2,0,1,2,0,1,2,0,1,2,0,1,2,0,1,2,0,1,2,0,1,2,0,1,2,0,1,2,0,1,2,0,1,2,0,1,2,0,1,2,0,1,2,0,1,2,0,1,2,0,1,2,0,1,2,0,1,2,0,1,2,0,1,2,0,1,2,0,1,2,0,1,2,0,1,2,0,1,2,0,1,2,0,1,2,0,1,2,0,1,2,0,1,2,0,1,2,0,1,2,0,1,2,0,1,2,0,1,2,0,1,2,0,1,2,0,1,2,0,1,2,0,1,2,0,1,2,0,1,2,0,1,2,0,1,2,0,1,2,0,1,2,0,1,2,0,1,2,0,1,2,0,1,2,0,1,2,0,1,2,0,1,2,0,1,2,0,1,2,0,1,2,0,1,2,0,1,2,0,1,2,0,1,2,0,1,2,0,1,2,0,1,2,0,1,2,0,1,2,0,1,2,0,1,2,0,1,2,0,1,2,0,1,2,0,1,2,0,1,2],"trees":[{"base_weights":[-3.8783837E-3,4.7303593E-1,-7.4426436E-1,9.7987324E-1,1.9644992E-1,-6.2180704E-1,-8.6397296E-1,1.019688E-1,6.885334E-1,3.6659488E-1,-4.4290453E-1,-7.749269E-1,-4.6025476E-1,-7.6628727E-1,-9.154337E-1,3.1460118E-2,8.5876994E-2,4.7828935E-2,-9.703088E-3,-1.6353367E-2,-7.529331E-2,-8.494839E-2,-5.913213E-2,-3.586748E-2,-7.649004E-2,-8.126135E-2,-4.617295E-2,-9.321126E-2,-6.637771E-2],"categories":[],"categories_nodes":[],"categories_segments":[],"categories_sizes":[],"default_left":[0,0,0,0,0,0,0,0,0,0,0,0,0,0,0,0,0,0,0,0,0,0,0,0,0,0,0,0,0],"id":0,"left_children":[1,3,5,7,9,11,13,-1,15,17,19,21,23,25,27,-1,-1,-1,-1,-1,-1,-1,-1,-1,-1,-1,-1,-1,-1],"loss_changes":[5.665268E2,1.3660666E2,8.677307E0,3.2913513E0,6.8976395E1,7.417938E0,8.834839E-1,0E0,2.5607262E0,2.5947372E1,1.1432091E1,1.6865005E0,4.534565E0,1.2462616E0,2.2650146E-1,0E0,0E0,0E0,0E0,0E0,0E0,0E0,0E0,0E0,0E0,0E0,0E0,0E0,0E0],"parents":[2147483647,0,0,1,1,2,2,3,3,4,4,5,5,6,6,8,8,9,9,10,10,11,11,12,12,13,13,14,14],"right_children":[2,4,6,8,10,12,14,-1,16,18,20,22,24,26,28,-1,-1,-1,-1,-1,-1,-1,-1,-1,-1,-1,-1,-1,-1],"split_conditions":[1E0,1E0,1E0,1E0,1E0,6E0,1E0,1.019688E-1,1E0,1E0,1E0,1E0,1E0,1E0,1E0,3.1460118E-2,8.5876994E-2,4.7828935E-2,-9.703088E-3,-1.6353367E-2,-7.529331E-2,-8.494839E-2,-5.913213E-2,-3.586748E-2,-7.649004E-2,-8.126135E-2,-4.617295E-2,-9.321126E-2,-6.637771E-2],"split_indices":[23,18,0,20,21,19,28,0,27,20,20,13,21,13,17,0,0,0,0,0,0,0,0,0,0,0,0,0,0],"split_type":[0,0,0,0,0,0,0,0,0,0,0,0,0,0,0,0,0,0,0,0,0,0,0,0,0,0,0,0,0],"sum_hessian":[1.6024371E3,9.748534E2,6.2758374E2,3.432723E2,6.3158105E2,3.132922E2,3.1429153E2,2.9980115E2,4.3471165E1,4.991689E2,1.3241217E2,1.588946E2,1.5439758E2,1.1392443E2,2.003671E2,1.4490389E1,2.8980778E1,4.022332E2,9.69357E1,7.045327E1,6.1958904E1,1.1042675E2,4.846785E1,1.1742211E2,3.6975475E1,9.743537E1,1.6489063E1,1.8537704E2,1.4990057E1],"tree_param":{"num_deleted":"0","num_feature":"31","num_nodes":"29","size_leaf_vector":"1"}},{"base_weights":[-3.2449472E-3,-3.3466122E-1,9.161518E-1,-8.536041E-2,-1.1079088E-1,8.5973555E-1,1.0338159E0,-2.2407506E-1,3.026221E-1,8.788595E-1,4.7410575E-1,1.0838591E0,6.021878E-1,-4.0800106E-2,-3.943713E-3,4.1503273E-2,-7.4430145E-3,6.9382645E-2,9.1745935E-2,-2.3047011E-2,5.914345E-2,1.1118593E-1,7.285708E-2,-2.3047011E-2,7.3777966E-2],"categories":[],"categories_nodes":[],"categories_segments":[],"categories_sizes":[],"default_left":[0,0,0,0,0,0,0,0,0,0,0,0,0,0,0,0,0,0,0,0,0,0,0,0,0],"id":1,"left_children":[1,3,5,-1,7,9,11,13,15,17,19,21,23,-1,-1,-1,-1,-1,-1,-1,-1,-1,-1,-1,-1],"loss_changes":[4.7398987E2,1.3274153E2,1.8471985E0,0E0,3.753212E1,1.6816711E0,2.125885E0,2.1326576E1,7.341505E0,1.2912598E0,1.4271519E0,3.2424927E-1,1.9329929E0,0E0,0E0,0E0,0E0,0E0,0E0,0E0,0E0,0E0,0E0,0E0,0E0],"parents":[2147483647,0,0,1,1,2,2,4,4,5,5,6,6,7,7,8,8,9,9,10,10,11,11,12,12],"right_children":[2,4,6,-1,8,10,12,14,16,18,20,22,24,-1,-1,-1,-1,-1,-1,-1,-1,-1,-1,-1,-1],"split_conditions":[1E0,1E0,1E0,-8.536041E-2,1E0,1.93E2,1E0,1E0,1E0,5.82E1,1.9E1,1.9E2,4.92E1,-4.0800106E-2,-3.943713E-3,4.1503273E-2,-7.4430145E-3,6.9382645E-2,9.1745935E-2,-2.3047011E-2,5.914345E-2,1.1118593E-1,7.285708E-2,-2.3047011E-2,7.3777966E-2],"split_indices":[22,18,30,0,25,3,10,0,15,2,1,3,2,0,0,0,0,0,0,0,0,0,0,0,0],"split_type":[0,0,0,0,0,0,0,0,0,0,0,0,0,0,0,0,0,0,0,0,0,0,0,0,0],"sum_hessian":[1.5535732E3,1.1424049E3,4.1116833E2,3.4345224E2,7.989527E2,2.835308E2,1.27637566E2,6.2747015E2,1.7148253E2,2.689158E2,1.4614988E1,1.13022575E2,1.4614988E1,3.1373508E2,3.1373508E2,1.3202206E2,3.946047E1,4.969096E1,2.1922482E2,1.9486651E0,1.2666324E1,1.0279208E2,1.0230492E1,1.9486651E0,1.2666324E1],"tree_param":{"num_deleted":"0","num_feature":"31","num_nodes":"25","size_leaf_vector":"1"}},{"base_weights":[2.6319118E-2,-3.0752593E-1,1.5870705E0,-5.199952E-1,6.662191E-1,2.5454214E0,6.9256604E-1,-5.483202E-2,-4.8801255E-1,3.985858E-1,1.9189458E0,3.0511024E0,7.863828E-1,-2.2610898E-1,1.6024126E0,-5.0912328E-2,-3.5408746E-2,1.3485216E-2,1.02165416E-1,1.4190524E-2,3.0766118E-1,3.312226E-1,1.1177784E-1,7.731849E-3,1.5937066E-1,-3.177121E-2,4.5477256E-2,2.0106994E-1,-1.1819927E-2],"categories":[],"categories_nodes":[],"categories_segments":[],"categories_sizes":[],"default_left":[0,0,0,0,0,0,0,0,0,0,0,0,0,0,0,0,0,0,0,0,0,0,0,0,0,0,0,0,0],"id":2,"left_children":[1,3,5,7,9,11,13,-1,15,17,19,21,23,25,27,-1,-1,-1,-1,-1,-1,-1,-1,-1,-1,-1,-1,-1,-1],"loss_changes":[2.8425574E2,9.333998E1,8.0642136E1,6.716919E-2,2.6374474E1,3.8548157E1,4.306907E1,0E0,3.3613205E-1,1.1029714E1,2.8338207E1,1.417276E1,6.531969E0,1.7848277E0,1.8357887E1,0E0,0E0,0E0,0E0,0E0,0E0,0E0,0E0,0E0,0E0,0E0,0E0,0E0,0E0],"parents":[2147483647,0,0,1,1,2,2,3,3,4,4,5,5,6,6,8,8,9,9,10,10,11,11,12,12,13,13,14,14],"right_children":[2,4,6,8,10,12,14,-1,16,18,20,22,24,26,28,-1,-1,-1,-1,-1,-1,-1,-1,-1,-1,-1,-1,-1,-1],"split_conditions":[1E0,1E0,1E0,1E0,1E0,1E0,1E0,-5.483202E-2,1E0,1E0,1E0,1E0,1E0,1E0,1E0,-5.0912328E-2,-3.5408746E-2,1.3485216E-2,1.02165416E-1,1.4190524E-2,3.0766118E-1,3.312226E-1,1.1177784E-1,7.731849E-3,1.5937066E-1,-3.177121E-2,4.5477256E-2,2.0106994E-1,-1.1819927E-2],"split_indices":[21,20,23,0,16,29,20,0,16,14,0,24,20,11,14,0,0,0,0,0,0,0,0,0,0,0,0,0,0],"split_type":[0,0,0,0,0,0,0,0,0,0,0,0,0,0,0,0,0,0,0,0,0,0,0,0,0,0,0,0,0],"sum_hessian":[5.4360834E2,4.4848108E2,9.512724E1,3.6853372E2,7.9947365E1,4.503364E1,5.00936E1,1.8688118E2,1.8165254E2,6.696013E1,1.2987229E1,3.4407726E1,1.0625916E1,2.5299797E1,2.4793802E1,1.5449744E2,2.7155117E1,4.790095E1,1.9059181E1,5.5659556E0,7.421274E0,2.9685097E1,4.722629E0,6.240617E0,4.3852983E0,2.2769817E1,2.5299797E0,1.9902508E1,4.8912945E0],"tree_param":{"num_deleted":"0","num_feature":"31","num_nodes":"29","size_leaf_vector":"1"}},{"base_weights":[-4.7770315E-3,4.4051722E-1,-6.9759166E-1,6.069187E-1,-4.655631E-1,-5.328277E-1,-8.859481E-2,7.19163E-1,-2.6104707E-1,-2.1629268E-1,-5.622752E-1,-3.1582588E-1,-7.324072E-1,8.091483E-2,2.6439285E-2,4.1186507E-3,-6.214121E-2,-7.1299183E-3,-5.4116517E-2,-6.3401945E-2,-3.3370093E-3,-6.040748E-2,-7.6827814E-4,-7.881996E-2,-3.4047164E-2],"categories":[],"categories_nodes":[],"categories_segments":[],"categories_sizes":[],"default_left":[0,0,0,0,0,0,0,0,0,0,0,0,0,0,0,0,0,0,0,0,0,0,0,0,0],"id":3,"left_children":[1,3,5,7,9,11,-1,13,15,17,19,21,23,-1,-1,-1,-1,-1,-1,-1,-1,-1,-1,-1,-1],"loss_changes":[4.9104388E2,1.4637112E2,1.8854736E1,7.998102E1,3.5162163E0,1.4263824E1,0E0,2.9475708E1,1.03203E1,2.0248837E0,4.0805855E0,1.4393795E1,3.527443E0,0E0,0E0,0E0,0E0,0E0,0E0,0E0,0E0,0E0,0E0,0E0,0E0],"parents":[2147483647,0,0,1,1,2,2,3,3,4,4,5,5,7,7,8,8,9,9,10,10,11,11,12,12],"right_children":[2,4,6,8,10,12,-1,14,16,18,20,22,24,-1,-1,-1,-1,-1,-1,-1,-1,-1,-1,-1,-1],"split_conditions":[1E0,1E0,1E0,1E0,5E0,1E0,-8.859481E-2,1E0,1E0,1E0,1E0,6E0,1E0,8.091483E-2,2.6439285E-2,4.1186507E-3,-6.214121E-2,-7.1299183E-3,-5.4116517E-2,-6.3401945E-2,-3.3370093E-3,-6.040748E-2,-7.6827814E-4,-7.881996E-2,-3.4047164E-2],"split_indices":[23,22,22,21,19,0,0,20,20,21,10,19,30,0,0,0,0,0,0,0,0,0,0,0,0],"split_type":[0,0,0,0,0,0,0,0,0,0,0,0,0,0,0,0,0,0,0,0,0,0,0,0,0],"sum_hessian":[1.5896854E3,9.679299E2,6.217555E2,8.180292E2,1.4990074E2,3.336902E2,2.880653E2,7.2450806E2,9.352109E1,4.2806267E1,1.07094475E2,1.6110455E2,1.7258565E2,6.041799E2,1.20328224E2,5.1344673E1,4.217642E1,3.0440063E1,1.2366202E1,9.4127625E1,1.296685E1,8.27431E1,7.836144E1,1.501943E2,2.2391342E1],"tree_param":{"num_deleted":"0","num_feature":"31","num_nodes":"25","size_leaf_vector":"1"}},{"base_weights":[6.092127E-3,-5.0466156E-1,7.590189E-1,-6.795117E-1,4.1021955E-1,5.0760186E-1,1.05656184E-1,-7.5472766E-1,-1.6974849E-1,2.3514044E-1,7.783255E-1,7.5488037E-1,2.4930608E-1,-7.560771E-2,-7.0952284E-3,-2.2160877E-2,5.7027917E-2,-3.7291613E-3,4.4118486E-2,8.500739E-2,-5.829317E-2,8.7779686E-2,4.921962E-2,4.3275733E-2,-1.922266E-2],"categories":[],"categories_nodes":[],"categories_segments":[],"categories_sizes":[],"default_left":[0,0,0,0,0,0,0,0,0,0,0,0,0,0,0,0,0,0,0,0,0,0,0,0,0],"id":4,"left_children":[1,3,5,7,9,11,-1,13,15,17,19,21,23,-1,-1,-1,-1,-1,-1,-1,-1,-1,-1,-1,-1],"loss_changes":[5.9282196E2,1.4720845E2,4.6073425E1,2.9453003E1,9.355185E0,2.1504463E1,0E0,5.6637573E-1,3.9829412E0,5.726819E0,5.1123104E0,5.154564E0,1.365945E1,0E0,0E0,0E0,0E0,0E0,0E0,0E0,0E0,0E0,0E0,0E0,0E0],"parents":[2147483647,0,0,1,1,2,2,3,3,4,4,5,5,7,7,8,8,9,9,10,10,11,11,12,12],"right_children":[2,4,6,8,10,12,-1,14,16,18,20,22,24,-1,-1,-1,-1,-1,-1,-1,-1,-1,-1,-1,-1],"split_conditions":[1E0,1E0,1E0,1E0,1E0,6E0,1.05656184E-1,2.8E1,8E0,1E0,1.92E2,1E0,1E0,-7.560771E-2,-7.0952284E-3,-2.2160877E-2,5.7027917E-2,-3.7291613E-3,4.4118486E-2,8.500739E-2,-5.829317E-2,8.7779686E-2,4.921962E-2,4.3275733E-2,-1.922266E-2],"split_indices":[23,22,22,25,30,19,0,1,19,28,3,13,20,0,0,0,0,0,0,0,0,0,0,0,0],"split_type":[0,0,0,0,0,0,0,0,0,0,0,0,0,0,0,0,0,0,0,0,0,0,0,0,0],"sum_hessian":[1.5395626E3,9.1749945E2,6.220631E2,7.705003E2,1.4699915E2,3.3863242E2,2.834307E2,6.7101154E2,9.948879E1,1.00729034E2,4.627011E1,1.7202367E2,1.6660876E2,6.695844E2,1.4271365E0,9.362799E1,5.8608007E0,4.372923E1,5.69998E1,4.4310158E1,1.9599507E0,1.1559312E2,5.6430553E1,1.1771821E2,4.889055E1],"tree_param":{"num_deleted":"0","num_feature":"31","num_nodes":"25","size_leaf_vector":"1"}},{"base_weights":[-9.9413395E-3,-3.6822605E-1,1.0626949E0,-5.2093465E-2,5.8079493E-1,5.648864E-1,1.8292009E0,1.3223627E0,-3.0513448E-1,8.8516456E-1,4.0910713E-2,2.130204E0,2.3387505E-1,1.451304E-1,-3.7506193E-2,-3.9564297E-2,1.985394E-2,1.21633805E-1,9.333533E-3,-3.7668858E-2,3.4097027E-2,2.9788494E-1,1.3662672E-1,-4.5837633E-2,9.348698E-2],"categories":[],"categories_nodes":[],"categories_segments":[],"categories_sizes":[],"default_left":[0,0,0,0,0,0,0,0,0,0,0,0,0,0,0,0,0,0,0,0,0,0,0,0,0],"id":5,"left_children":[1,3,5,-1,7,9,11,13,15,17,19,21,23,-1,-1,-1,-1,-1,-1,-1,-1,-1,-1,-1,-1],"loss_changes":[2.0772702E2,5.9019894E1,5.060959E1,0E0,3.760897E1,1.3976507E1,2.4876678E1,7.3324776E0,1.2919123E0,1.346344E1,4.229039E0,2.46707E1,5.0438676E0,0E0,0E0,0E0,0E0,0E0,0E0,0E0,0E0,0E0,0E0,0E0,0E0],"parents":[2147483647,0,0,1,1,2,2,4,4,5,5,6,6,7,7,8,8,9,9,10,10,11,11,12,12],"right_children":[2,4,6,-1,8,10,12,14,16,18,20,22,24,-1,-1,-1,-1,-1,-1,-1,-1,-1,-1,-1,-1],"split_conditions":[1E0,1E0,1E0,-5.2093465E-2,1E0,1E0,1E0,1E0,1E0,1E0,1.72E2,1E0,1E0,1.451304E-1,-3.7506193E-2,-3.9564297E-2,1.985394E-2,1.21633805E-1,9.333533E-3,-3.7668858E-2,3.4097027E-2,2.9788494E-1,1.3662672E-1,-4.5837633E-2,9.348698E-2],"split_indices":[20,21,21,0,23,23,24,12,11,15,3,23,0,0,0,0,0,0,0,0,0,0,0,0,0],"split_type":[0,0,0,0,0,0,0,0,0,0,0,0,0,0,0,0,0,0,0,0,0,0,0,0,0],"sum_hessian":[5.3850244E2,4.0416043E2,1.34342E2,3.4852908E2,5.5631336E1,8.249951E1,5.1842476E1,3.0014801E1,2.5616535E1,5.077448E1,3.1725035E1,4.333149E1,8.510987E0,2.803052E1,1.9842815E0,2.1896326E1,3.7202096E0,3.5423077E1,1.5351404E1,1.3157743E1,1.8567291E1,1.9154133E1,2.4177357E1,4.456338E0,4.054649E0],"tree_param":{"num_deleted":"0","num_feature":"31","num_nodes":"25","size_leaf_vector":"1"}},{"base_weights":[-7.2478503E-4,4.026384E-1,-6.355162E-1,5.5275995E-1,-4.571137E-1,-4.891289E-1,-8.1592046E-2,6.54897E-1,-2.1805316E-1,-3.5551423E-1,-6.645285E-1,-2.6913023E-1,-6.841476E-1,7.334879E-2,2.5955245E-2,1.0780212E-2,-5.8614977E-2,-1.999331E-2,-6.518275E-2,-7.139253E-2,-4.272339E-3,-1.6382163E-2,-6.739667E-2,-4.885522E-2,-7.9129405E-2],"categories":[],"categories_nodes":[],"categories_segments":[],"categories_sizes":[],"default_left":[0,0,0,0,0,0,0,0,0,0,0,0,0,0,0,0,0,0,0,0,0,0,0,0,0],"id":6,"left_children":[1,3,5,7,9,11,-1,13,15,17,19,21,23,-1,-1,-1,-1,-1,-1,-1,-1,-1,-1,-1,-1],"loss_changes":[4.050383E2,1.25092896E2,1.5832214E1,6.500853E1,2.8053055E0,1.4480095E1,0E0,2.2421692E1,1.1715982E1,4.434971E0,1.3917332E0,6.8071194E0,3.3969345E0,0E0,0E0,0E0,0E0,0E0,0E0,0E0,0E0,0E0,0E0,0E0,0E0],"parents":[2147483647,0,0,1,1,2,2,3,3,4,4,5,5,7,7,8,8,9,9,10,10,11,11,12,12],"right_children":[2,4,6,8,10,12,-1,14,16,18,20,22,24,-1,-1,-1,-1,-1,-1,-1,-1,-1,-1,-1,-1],"split_conditions":[1E0,1E0,1E0,1E0,1E0,1E0,-8.1592046E-2,1E0,1E0,2.2E1,1E0,1E0,1E0,7.334879E-2,2.5955245E-2,1.0780212E-2,-5.8614977E-2,-1.999331E-2,-6.518275E-2,-7.139253E-2,-4.272339E-3,-1.6382163E-2,-6.739667E-2,-4.885522E-2,-7.9129405E-2],"split_indices":[23,22,22,21,30,0,0,20,20,1,26,21,28,0,0,0,0,0,0,0,0,0,0,0,0],"split_type":[0,0,0,0,0,0,0,0,0,0,0,0,0,0,0,0,0,0,0,0,0,0,0,0,0],"sum_hessian":[1.5798634E3,9.66249E2,6.136144E2,8.2291644E2,1.4333261E2,3.4079266E2,2.728217E2,7.267663E2,9.615016E1,9.802859E1,4.530402E1,1.6125854E2,1.7953413E2,6.055358E2,1.21230446E2,5.1376537E1,4.477363E1,6.5376816E1,3.265177E1,4.1832645E1,3.4713778E0,1.2908484E2,3.21737E1,6.550844E1,1.1402569E2],"tree_param":{"num_deleted":"0","num_feature":"31","num_nodes":"25","size_leaf_vector":"1"}},{"base_weights":[-2.6468167E-3,-3.0099827E-1,7.586307E-1,-7.6005496E-2,-1.1671698E-1,7.777403E-1,4.5125127E-1,-1.9768298E-1,1.2358501E-1,8.5214764E-1,6.99281E-1,6.705804E-1,-5.3143483E-2,-3.3876937E-2,-6.117459E-3,2.2418693E-2,-5.897592E-3,7.823575E-2,9.1883734E-2,7.500426E-2,3.5212036E-2,2.7614517E-2,8.051742E-2,-4.9879286E-2,3.5864297E-2],"categories":[],"categories_nodes":[],"categories_segments":[],"categories_sizes":[],"default_left":[0,0,0,0,0,0,0,0,0,0,0,0,0,0,0,0,0,0,0,0,0,0,0,0,0],"id":7,"left_children":[1,3,5,-1,7,9,11,13,15,17,19,21,23,-1,-1,-1,-1,-1,-1,-1,-1,-1,-1,-1,-1],"loss_changes":[3.501012E2,9.35934E1,2.1983795E0,0E0,1.5421751E1,1.7814636E0,3.1094437E0,1.1387072E1,3.6875024E0,2.326355E-1,3.3271484E0,8.0958843E-1,1.8941747E0,0E0,0E0,0E0,0E0,0E0,0E0,0E0,0E0,0E0,0E0,0E0,0E0],"parents":[2147483647,0,0,1,1,2,2,4,4,5,5,6,6,7,7,8,8,9,9,10,10,11,11,12,12],"right_children":[2,4,6,-1,8,10,12,14,16,18,20,22,24,-1,-1,-1,-1,-1,-1,-1,-1,-1,-1,-1,-1],"split_conditions":[1E0,1E0,1.92E2,-7.6005496E-2,1E0,1E0,1E0,1E0,1.8E2,2.64E2,1E0,1.94E2,1E0,-3.3876937E-2,-6.117459E-3,2.2418693E-2,-5.897592E-3,7.823575E-2,9.1883734E-2,7.500426E-2,3.5212036E-2,2.7614517E-2,8.051742E-2,-4.9879286E-2,3.5864297E-2],"split_indices":[22,18,3,0,14,0,21,0,3,6,24,3,27,0,0,0,0,0,0,0,0,0,0,0,0],"split_type":[0,0,0,0,0,0,0,0,0,0,0,0,0,0,0,0,0,0,0,0,0,0,0,0,0],"sum_hessian":[1.5394199E3,1.1064119E3,4.330081E2,3.1603177E2,7.903801E2,4.062231E2,2.6784958E1,5.913211E2,1.9905904E2,2.0343427E2,2.0278885E2,1.843798E1,8.346978E0,2.90056E2,3.012651E2,1.2819046E2,7.0868576E1,1.0562745E2,9.780682E1,1.7590729E2,2.6881563E1,5.467331E0,1.297065E1,3.9071918E0,4.4397864E0],"tree_param":{"num_deleted":"0","num_feature":"31","num_nodes":"25","size_leaf_vector":"1"}},{"base_weights":[-2.3483622E-5,-3.6628804E-1,9.094692E-1,-5.188824E-2,4.845221E-1,1.3422729E0,-2.263891E-1,1.0587605E0,-2.942214E-1,7.6765764E-1,2.1935751E0,1.4233547E-1,-4.051232E-1,1.3541639E-1,6.7865164E-3,-4.455926E-2,-7.721578E-3,1.7664766E-2,9.666954E-2,2.4266057E-1,7.881673E-2,-3.878306E-2,8.51239E-2,-4.3438107E-2,1.9954894E-2],"categories":[],"categories_nodes":[],"categories_segments":[],"categories_sizes":[],"default_left":[0,0,0,0,0,0,0,0,0,0,0,0,0,0,0,0,0,0,0,0,0,0,0,0,0],"id":8,"left_children":[1,3,5,-1,7,9,11,13,15,17,19,21,23,-1,-1,-1,-1,-1,-1,-1,-1,-1,-1,-1,-1],"loss_changes":[1.7853593E2,4.985736E1,7.59477E1,0E0,2.6527105E1,5.2888885E1,2.9119387E0,9.848606E0,8.0860925E-1,7.845131E0,1.2634705E1,5.922502E0,6.073394E-1,0E0,0E0,0E0,0E0,0E0,0E0,0E0,0E0,0E0,0E0,0E0,0E0],"parents":[2147483647,0,0,1,1,2,2,4,4,5,5,6,6,7,7,8,8,9,9,10,10,11,11,12,12],"right_children":[2,4,6,-1,8,10,12,14,16,18,20,22,24,-1,-1,-1,-1,-1,-1,-1,-1,-1,-1,-1,-1],"split_conditions":[1E0,1E0,1E0,-5.188824E-2,1E0,1E0,1E0,1E0,2.7E2,1E0,1E0,1E0,9.28E1,1.3541639E-1,6.7865164E-3,-4.455926E-2,-7.721578E-3,1.7664766E-2,9.666954E-2,2.4266057E-1,7.881673E-2,-3.878306E-2,8.51239E-2,-4.3438107E-2,1.9954894E-2],"split_indices":[20,21,22,0,23,21,23,29,6,18,24,21,2,0,0,0,0,0,0,0,0,0,0,0,0],"split_type":[0,0,0,0,0,0,0,0,0,0,0,0,0,0,0,0,0,0,0,0,0,0,0,0,0],"sum_hessian":[5.339589E2,3.8108737E2,1.5287158E2,3.2346368E2,5.762367E1,1.1056177E2,4.230982E1,3.295982E1,2.4663849E1,6.714305E1,4.341872E1,1.387978E1,2.8430037E1,2.5108059E1,7.85176E0,1.3908605E1,1.0755245E1,1.7390959E1,4.975209E1,3.662012E1,6.7985973E0,8.200103E0,5.6796775E0,2.7386528E1,1.0435082E0],"tree_param":{"num_deleted":"0","num_feature":"31","num_nodes":"25","size_leaf_vector":"1"}},{"base_weights":[1.0468896E-3,3.8810337E-1,-6.0344046E-1,7.936274E-1,1.7522103E-1,-4.89796E-1,-7.143832E-1,8.235331E-2,5.80265E-1,3.157569E-1,-2.6698184E-1,-6.2701684E-1,-3.578735E-1,-6.0944176E-1,-7.6975065E-1,2.9824588E-2,6.959373E-2,3.7192043E-2,5.8174557E-3,-8.228982E-3,-4.6596445E-2,-6.520403E-2,-1.4679943E-2,-3.078248E-2,-7.2668925E-2,-6.554345E-2,3.276553E-2,-7.8112684E-2,-5.502827E-2],"categories":[],"categories_nodes":[],"categories_segments":[],"categories_sizes":[],"default_left":[0,0,0,0,0,0,0,0,0,0,0,0,0,0,0,0,0,0,0,0,0,0,0,0,0,0,0,0,0],"id":9,"left_children":[1,3,5,7,9,11,13,-1,15,17,19,21,23,25,27,-1,-1,-1,-1,-1,-1,-1,-1,-1,-1,-1,-1,-1,-1],"loss_changes":[3.6367102E2,8.166554E1,7.300003E0,1.6017456E0,3.8780567E1,5.25898E0,1.3021393E0,0E0,1.2099056E0,6.8206177E0,5.500269E0,1.6724434E0,2.669983E0,4.9595375E0,5.8914185E-2,0E0,0E0,0E0,0E0,0E0,0E0,0E0,0E0,0E0,0E0,0E0,0E0,0E0,0E0],"parents":[2147483647,0,0,1,1,2,2,3,3,4,4,5,5,6,6,8,8,9,9,10,10,11,11,12,12,13,13,14,14],"right_children":[2,4,6,8,10,12,14,-1,16,18,20,22,24,26,28,-1,-1,-1,-1,-1,-1,-1,-1,-1,-1,-1,-1,-1,-1],"split_conditions":[1E0,1E0,1E0,1E0,1E0,6E0,1E0,8.235331E-2,1E0,1E0,1E0,1E0,1E0,3.7E2,1E0,2.9824588E-2,6.959373E-2,3.7192043E-2,5.8174557E-3,-8.228982E-3,-4.6596445E-2,-6.520403E-2,-1.4679943E-2,-3.078248E-2,-7.2668925E-2,-6.554345E-2,3.276553E-2,-7.8112684E-2,-5.502827E-2],"split_indices":[23,18,0,20,20,19,28,0,27,30,0,5,26,6,17,0,0,0,0,0,0,0,0,0,0,0,0,0,0],"split_type":[0,0,0,0,0,0,0,0,0,0,0,0,0,0,0,0,0,0,0,0,0,0,0,0,0,0,0,0,0],"sum_hessian":[1.552343E3,9.465926E2,6.0575037E2,3.2491922E2,6.216734E2,3.0190652E2,3.0384384E2,2.824677E2,4.2451504E1,4.7196487E2,1.4970853E2,1.4614209E2,1.5576443E2,1.0908866E2,1.9475517E2,1.3388219E1,2.9063286E1,3.871142E2,8.485066E1,7.8375435E1,7.13331E1,1.3856392E2,7.578169E0,1.3876808E2,1.6996353E1,1.0427158E2,4.817076E0,1.8272446E2,1.2030716E1],"tree_param":{"num_deleted":"0","num_feature":"31","num_nodes":"29","size_leaf_vector":"1"}},{"base_weights":[-4.0387698E-3,-4.4993934E-1,6.427854E-1,-7.272499E-2,-3.0638117E-1,7.6396394E-1,5.208447E-1,-3.8764623E-1,-1.0369505E-2,8.131543E-1,6.6049E-1,6.3258684E-1,2.0370822E-1,-4.662602E-2,-3.2750468E-3,-2.6850728E-2,2.2859758E-2,5.5061776E-2,8.236248E-2,3.7003603E-2,7.887167E-2,4.6180066E-2,8.031352E-2,1.1296342E-2,6.7329966E-2],"categories":[],"categories_nodes":[],"categories_segments":[],"categories_sizes":[],"default_left":[0,0,0,0,0,0,0,0,0,0,0,0,0,0,0,0,0,0,0,0,0,0,0,0,0],"id":10,"left_children":[1,3,5,-1,7,9,11,13,15,17,19,21,23,-1,-1,-1,-1,-1,-1,-1,-1,-1,-1,-1,-1],"loss_changes":[4.4238095E2,3.5921432E1,8.8506775E0,0E0,1.4428104E1,1.049881E0,1.1037796E1,1.3117035E1,8.096461E0,1.1550903E-1,3.6480942E0,6.402199E0,3.4853199E0,0E0,0E0,0E0,0E0,0E0,0E0,0E0,0E0,0E0,0E0,0E0,0E0],"parents":[2147483647,0,0,1,1,2,2,4,4,5,5,6,6,7,7,8,8,9,9,10,10,11,11,12,12],"right_children":[2,4,6,-1,8,10,12,14,16,18,20,22,24,-1,-1,-1,-1,-1,-1,-1,-1,-1,-1,-1,-1],"split_conditions":[1E0,1E0,6E0,-7.272499E-2,1E0,1E0,1E0,1E0,1E0,4.77E1,1E0,1E0,8E0,-4.662602E-2,-3.2750468E-3,-2.6850728E-2,2.2859758E-2,5.5061776E-2,8.236248E-2,3.7003603E-2,7.887167E-2,4.6180066E-2,8.031352E-2,1.1296342E-2,6.7329966E-2],"split_indices":[23,18,19,0,25,13,20,30,28,2,28,0,19,0,0,0,0,0,0,0,0,0,0,0,0],"split_type":[0,0,0,0,0,0,0,0,0,0,0,0,0,0,0,0,0,0,0,0,0,0,0,0,0],"sum_hessian":[1.5318093E3,9.0691473E2,6.248946E2,3.0796146E2,5.9895325E2,3.1078595E2,3.1410867E2,4.6969638E2,1.2925687E2,2.0599825E2,1.047877E2,2.3153372E2,8.257494E1,3.8426334E2,8.543307E1,6.2076637E1,6.718023E1,9.9557705E0,1.9604248E2,3.3282757E1,7.1504944E1,1.1753878E2,1.1399495E2,7.024183E1,1.2333117E1],"tree_param":{"num_deleted":"0","num_feature":"31","num_nodes":"25","size_leaf_vector":"1"}},{"base_weights":[-1.4691641E-2,-3.015943E-1,9.3287843E-1,-5.0909717E-2,3.9994213E-1,1.3430346E0,4.2569888E-1,2.279977E-1,1.1668968E0,1.5350208E0,4.389275E-1,-2.6269552E-1,9.8938155E-1,4.485115E-2,-1.3991241E-2,1.5436846E-1,2.0175412E-2,1.6032912E-1,2.8076349E-2,-2.1932635E-3,9.9852175E-2,-3.2890078E-2,6.405574E-2,1.1123591E-1,-1.8040266E-2],"categories":[],"categories_nodes":[],"categories_segments":[],"categories_sizes":[],"default_left":[0,0,0,0,0,0,0,0,0,0,0,0,0,0,0,0,0,0,0,0,0,0,0,0,0],"id":11,"left_children":[1,3,5,-1,7,9,11,13,15,17,19,21,23,-1,-1,-1,-1,-1,-1,-1,-1,-1,-1,-1,-1],"loss_changes":[1.450138E2,5.9800903E1,2.5217628E1,0E0,1.2131797E1,1.114312E1,2.2337143E1,6.3939943E0,5.8612785E0,4.324005E0,3.4582977E0,1.7896484E0,4.730831E0,0E0,0E0,0E0,0E0,0E0,0E0,0E0,0E0,0E0,0E0,0E0,0E0],"parents":[2147483647,0,0,1,1,2,2,4,4,5,5,6,6,7,7,8,8,9,9,10,10,11,11,12,12],"right_children":[2,4,6,-1,8,10,12,14,16,18,20,22,24,-1,-1,-1,-1,-1,-1,-1,-1,-1,-1,-1,-1],"split_conditions":[1E0,1E0,1E0,-5.0909717E-2,1E0,1E0,1E0,1E0,3.05E2,1E0,2.6E2,3.93E2,8E0,4.485115E-2,-1.3991241E-2,1.5436846E-1,2.0175412E-2,1.6032912E-1,2.8076349E-2,-2.1932635E-3,9.9852175E-2,-3.2890078E-2,6.405574E-2,1.1123591E-1,-1.8040266E-2],"split_indices":[21,20,23,0,16,29,20,23,6,12,6,6,19,0,0,0,0,0,0,0,0,0,0,0,0],"split_type":[0,0,0,0,0,0,0,0,0,0,0,0,0,0,0,0,0,0,0,0,0,0,0,0,0],"sum_hessian":[5.3137787E2,4.084041E2,1.22973755E2,3.15391E2,9.3013115E1,6.707895E1,5.589481E1,7.703894E1,1.5974171E1,5.4754135E1,1.2324811E1,2.5404127E1,3.0490685E1,4.8031364E1,2.9007578E1,1.1057811E1,4.916361E0,5.1663754E1,3.0903828E0,7.285534E0,5.0392776E0,2.4261702E1,1.1424257E0,2.7634596E1,2.8560894E0],"tree_param":{"num_deleted":"0","num_feature":"31","num_nodes":"25","size_leaf_vector":"1"}},{"base_weights":[-1.5912957E-2,3.3617786E-1,-5.683327E-1,4.7327337E-1,-4.02105E-1,-4.2391223E-1,-7.490925E-2,5.678447E-1,-2.3651187E-1,-1.3382058E-1,-5.0894177E-1,-2.5063545E-1,-5.9375525E-1,6.355446E-2,4.467681E-3,7.7379667E-3,-5.8356624E-2,1.1241636E-3,-5.1175755E-2,-3.2676313E-2,-6.009381E-2,-4.8116397E-2,-2.844635E-3,-6.535479E-2,-1.8295124E-2],"categories":[],"categories_nodes":[],"categories_segments":[],"categories_sizes":[],"default_left":[0,0,0,0,0,0,0,0,0,0,0,0,0,0,0,0,0,0,0,0,0,0,0,0,0],"id":12,"left_children":[1,3,5,7,9,11,-1,13,15,17,19,21,23,-1,-1,-1,-1,-1,-1,-1,-1,-1,-1,-1,-1],"loss_changes":[2.9691318E2,9.455735E1,1.5194504E1,5.2947357E1,4.1326103E0,9.639839E0,0E0,2.4572235E1,1.0199327E1,2.3685243E0,1.5543594E0,8.50799E0,3.988327E0,0E0,0E0,0E0,0E0,0E0,0E0,0E0,0E0,0E0,0E0,0E0,0E0],"parents":[2147483647,0,0,1,1,2,2,3,3,4,4,5,5,7,7,8,8,9,9,10,10,11,11,12,12],"right_children":[2,4,6,8,10,12,-1,14,16,18,20,22,24,-1,-1,-1,-1,-1,-1,-1,-1,-1,-1,-1,-1],"split_conditions":[1E0,1E0,1E0,1E0,5E0,1E0,-7.490925E-2,1E0,1E0,1E0,1E0,6E0,1E0,6.355446E-2,4.467681E-3,7.7379667E-3,-5.8356624E-2,1.1241636E-3,-5.1175755E-2,-3.2676313E-2,-6.009381E-2,-4.8116397E-2,-2.844635E-3,-6.535479E-2,-1.8295124E-2],"split_indices":[23,22,22,21,19,0,0,25,20,21,27,19,30,0,0,0,0,0,0,0,0,0,0,0,0],"split_type":[0,0,0,0,0,0,0,0,0,0,0,0,0,0,0,0,0,0,0,0,0,0,0,0,0],"sum_hessian":[1.5245486E3,9.313401E2,5.932085E2,7.8578296E2,1.455571E2,3.316097E2,2.615988E2,6.935719E2,9.221105E1,4.209709E1,1.0346E2,1.6537103E2,1.662387E2,6.139143E2,7.965762E1,4.8826874E1,4.338418E1,3.1121927E1,1.0975164E1,3.624217E1,6.7217834E1,8.059033E1,8.478069E1,1.4460106E2,2.163763E1],"tree_param":{"num_deleted":"0","num_feature":"31","num_nodes":"25","size_leaf_vector":"1"}},{"base_weights":[-1.2235579E-3,-4.314402E-1,5.9892833E-1,-5.97777E-1,3.392825E-1,3.9678866E-1,8.3991736E-2,-6.596274E-1,-1.6212611E-1,3.479767E-2,5.249358E-1,2.8148597E-1,7.813698E-1,-6.896386E-2,-6.0726244E-2,-3.9702233E-2,9.846865E-3,-3.8643114E-2,2.4926051E-2,7.263667E-2,3.4145012E-2,-6.864451E-4,4.529388E-2,8.518269E-2,5.6028992E-2],"categories":[],"categories_nodes":[],"categories_segments":[],"categories_sizes":[],"default_left":[0,0,0,0,0,0,0,0,0,0,0,0,0,0,0,0,0,0,0,0,0,0,0,0,0],"id":13,"left_children":[1,3,5,7,9,11,-1,13,15,17,19,21,23,-1,-1,-1,-1,-1,-1,-1,-1,-1,-1,-1,-1],"loss_changes":[3.888619E2,1.12663605E2,3.0299835E1,1.9344177E1,8.820257E0,1.5028919E1,0E0,5.741272E-1,5.6138115E0,5.5432196E0,3.3392944E0,1.3159975E1,7.4949265E-1,0E0,0E0,0E0,0E0,0E0,0E0,0E0,0E0,0E0,0E0,0E0,0E0],"parents":[2147483647,0,0,1,1,2,2,3,3,4,4,5,5,7,7,8,8,9,9,10,10,11,11,12,12],"right_children":[2,4,6,8,10,12,-1,14,16,18,20,22,24,-1,-1,-1,-1,-1,-1,-1,-1,-1,-1,-1,-1],"split_conditions":[1E0,1E0,1E0,1E0,1E0,1E0,8.3991736E-2,1E0,1E0,5E0,1.74E2,1E0,1.81E2,-6.896386E-2,-6.0726244E-2,-3.9702233E-2,9.846865E-3,-3.8643114E-2,2.4926051E-2,7.263667E-2,3.4145012E-2,-6.864451E-4,4.529388E-2,8.518269E-2,5.6028992E-2],"split_indices":[23,22,22,25,28,14,0,9,28,19,3,28,3,0,0,0,0,0,0,0,0,0,0,0,0],"split_type":[0,0,0,0,0,0,0,0,0,0,0,0,0,0,0,0,0,0,0,0,0,0,0,0,0],"sum_hessian":[1.5040757E3,8.762326E2,6.27843E2,7.2087775E2,1.5535487E2,3.4288245E2,2.8496057E2,6.308065E2,9.007123E1,5.9294697E1,9.606017E1,2.6512598E2,7.775646E1,3.9325525E2,2.3755127E2,4.709604E1,4.297519E1,1.9733688E1,3.956101E1,4.4380474E1,5.16797E1,9.9218925E1,1.6590706E2,5.6801174E1,2.0955288E1],"tree_param":{"num_deleted":"0","num_feature":"31","num_nodes":"25","size_leaf_vector":"1"}},{"base_weights":[-4.5037135E-3,-3.470072E-1,7.452483E-1,-5.11531E-1,4.135428E-1,1.0430006E0,-1.3843521E-1,-5.2595276E-2,-4.1868603E-1,8.701426E-1,-3.3183554E-1,6.6638863E-1,1.5239943E0,3.6722317E-1,-4.3271086E-1,-2.7730376E-2,-5.1923253E-2,3.528632E-2,1.2762545E-1,-4.0244844E-2,6.1158657E-2,4.821605E-2,1.3065307E-1,1.6912058E-1,4.2335343E-2,-2.0138837E-2,1.0727685E-1,-4.9874533E-2,1.2460853E-2],"categories":[],"categories_nodes":[],"categories_segments":[],"categories_sizes":[],"default_left":[0,0,0,0,0,0,0,0,0,0,0,0,0,0,0,0,0,0,0,0,0,0,0,0,0,0,0,0,0],"id":14,"left_children":[1,3,5,7,9,11,13,-1,15,17,19,21,23,25,27,-1,-1,-1,-1,-1,-1,-1,-1,-1,-1,-1,-1,-1,-1],"loss_changes":[1.3766133E2,4.6255077E1,4.437539E1,1.8546295E-1,2.2749851E1,2.1782578E1,6.59449E0,0E0,5.047703E-1,8.205103E0,1.9644794E0,7.903961E0,9.3125E0,6.8159456E0,1.0851746E0,0E0,0E0,0E0,0E0,0E0,0E0,0E0,0E0,0E0,0E0,0E0,0E0,0E0,0E0],"parents":[2147483647,0,0,1,1,2,2,3,3,4,4,5,5,6,6,8,8,9,9,10,10,11,11,12,12,13,13,14,14],"right_children":[2,4,6,8,10,12,14,-1,16,18,20,22,24,26,28,-1,-1,-1,-1,-1,-1,-1,-1,-1,-1,-1,-1,-1,-1],"split_conditions":[1E0,1E0,1E0,1E0,1E0,1E0,1E0,-5.2595276E-2,1E0,1E0,3.93E2,1E0,1E0,1E0,1.89E2,-2.7730376E-2,-5.1923253E-2,3.528632E-2,1.2762545E-1,-4.0244844E-2,6.1158657E-2,4.821605E-2,1.3065307E-1,1.6912058E-1,4.2335343E-2,-2.0138837E-2,1.0727685E-1,-4.9874533E-2,1.2460853E-2],"split_indices":[20,21,22,16,23,21,23,0,28,0,6,16,24,21,3,0,0,0,0,0,0,0,0,0,0,0,0,0,0],"split_type":[0,0,0,0,0,0,0,0,0,0,0,0,0,0,0,0,0,0,0,0,0,0,0,0,0,0,0,0,0],"sum_hessian":[5.340726E2,3.6696976E2,1.6710281E2,3.019736E2,6.499616E1,1.2485375E2,4.2249065E1,2.5733636E2,4.4637238E1,4.0202038E1,2.4794127E1,7.136294E1,5.3490814E1,1.5451179E1,2.6797888E1,2.011322E1,2.4524015E1,1.8502989E1,2.1699049E1,2.360106E1,1.1930673E0,5.6776333E1,1.4586602E1,4.597035E1,7.5204687E0,8.951537E0,6.499641E0,2.4053041E1,2.744845E0],"tree_param":{"num_deleted":"0","num_feature":"31","num_nodes":"29","size_leaf_vector":"1"}},{"base_weights":[-7.254224E-4,3.2662845E-1,-5.1926196E-1,4.5251867E-1,-3.4112495E-1,-3.7270048E-1,-7.091463E-2,5.756214E-1,-4.2082082E-2,-2.382219E-1,-5.461472E-1,-1.7395005E-1,-5.6310827E-1,6.407738E-2,1.2301286E-2,1.2074954E-2,-4.941299E-2,7.1670115E-3,-3.5023045E-2,-6.066E-2,1.1421426E-2,-2.5987832E-3,-6.2882155E-2,-6.202812E-2,-1.6027737E-2],"categories":[],"categories_nodes":[],"categories_segments":[],"categories_sizes":[],"default_left":[0,0,0,0,0,0,0,0,0,0,0,0,0,0,0,0,0,0,0,0,0,0,0,0,0],"id":15,"left_children":[1,3,5,7,9,11,-1,13,15,17,19,21,23,-1,-1,-1,-1,-1,-1,-1,-1,-1,-1,-1,-1],"loss_changes":[2.5668973E2,7.808094E1,1.6022049E1,4.753914E1,2.98415E0,1.2480991E1,0E0,1.8349335E1,1.1575957E1,3.4981384E0,2.0076723E0,1.1026894E1,3.8000221E0,0E0,0E0,0E0,0E0,0E0,0E0,0E0,0E0,0E0,0E0,0E0,0E0],"parents":[2147483647,0,0,1,1,2,2,3,3,4,4,5,5,7,7,8,8,9,9,10,10,11,11,12,12],"right_children":[2,4,6,8,10,12,-1,14,16,18,20,22,24,-1,-1,-1,-1,-1,-1,-1,-1,-1,-1,-1,-1],"split_conditions":[1E0,1E0,1E0,1E0,1E0,1E0,-7.091463E-2,1E0,1E0,5E0,1E0,1E0,1E0,6.407738E-2,1.2301286E-2,1.2074954E-2,-4.941299E-2,7.1670115E-3,-3.5023045E-2,-6.066E-2,1.1421426E-2,-2.5987832E-3,-6.2882155E-2,-6.202812E-2,-1.6027737E-2],"split_indices":[23,22,22,20,30,0,0,25,21,19,26,14,30,0,0,0,0,0,0,0,0,0,0,0,0],"split_type":[0,0,0,0,0,0,0,0,0,0,0,0,0,0,0,0,0,0,0,0,0,0,0,0,0],"sum_hessian":[1.5102091E3,9.259953E2,5.8421387E2,7.793822E2,1.4661305E2,3.313926E2,2.5282126E2,6.239272E2,1.5545502E2,9.905708E1,4.7555973E1,1.6308043E2,1.6831218E2,5.4505206E2,7.887515E1,1.14826416E2,4.0628605E1,2.6393843E1,7.266324E1,4.3642162E1,3.9138086E0,1.2385091E2,3.9229527E1,1.4692029E2,2.139189E1],"tree_param":{"num_deleted":"0","num_feature":"31","num_nodes":"25","size_leaf_vector":"1"}},{"base_weights":[-3.180577E-3,-3.9537925E-1,5.3740895E-1,-5.4463226E-1,3.1484702E-1,3.39506E-1,7.886382E-2,-6.172446E-1,-8.628001E-2,3.1471025E-2,4.7307256E-1,2.3003466E-1,6.784446E-1,-6.723618E-2,-5.6976378E-2,-3.184419E-2,1.3989748E-2,2.1441802E-2,-4.6848085E-2,3.3101115E-2,7.2621256E-2,-4.0404624E-3,3.971539E-2,7.632025E-2,4.5528848E-2],"categories":[],"categories_nodes":[],"categories_segments":[],"categories_sizes":[],"default_left":[0,0,0,0,0,0,0,0,0,0,0,0,0,0,0,0,0,0,0,0,0,0,0,0,0],"id":16,"left_children":[1,3,5,7,9,11,-1,13,15,17,19,21,23,-1,-1,-1,-1,-1,-1,-1,-1,-1,-1,-1,-1],"loss_changes":[3.0643558E2,8.896216E1,2.9946579E1,2.2995575E1,6.5354376E0,1.2521774E1,0E0,1.181015E0,5.0786567E0,4.986087E0,3.128315E0,1.1756986E1,1.2205696E0,0E0,0E0,0E0,0E0,0E0,0E0,0E0,0E0,0E0,0E0,0E0,0E0],"parents":[2147483647,0,0,1,1,2,2,3,3,4,4,5,5,7,7,8,8,9,9,10,10,11,11,12,12],"right_children":[2,4,6,8,10,12,-1,14,16,18,20,22,24,-1,-1,-1,-1,-1,-1,-1,-1,-1,-1,-1,-1],"split_conditions":[1E0,1E0,1E0,1E0,1E0,1E0,7.886382E-2,1E0,1E0,1E0,1E0,1E0,1.8E2,-6.723618E-2,-5.6976378E-2,-3.184419E-2,1.3989748E-2,2.1441802E-2,-4.6848085E-2,3.3101115E-2,7.2621256E-2,-4.0404624E-3,3.971539E-2,7.632025E-2,4.5528848E-2],"split_indices":[23,22,22,25,28,14,0,18,28,21,30,28,3,0,0,0,0,0,0,0,0,0,0,0,0],"split_type":[0,0,0,0,0,0,0,0,0,0,0,0,0,0,0,0,0,0,0,0,0,0,0,0,0],"sum_hessian":[1.4433226E3,8.3662115E2,6.0670154E2,6.915303E2,1.4509091E2,3.406834E2,2.6601813E2,5.966604E2,9.486988E1,5.241554E1,9.267537E1,2.587805E2,8.190293E1,2.7003516E2,3.266252E2,4.6614296E1,4.8255585E1,3.879166E1,1.3623879E1,6.0839848E1,3.1835522E1,9.9127106E1,1.5965337E2,5.7604057E1,2.4298876E1],"tree_param":{"num_deleted":"0","num_feature":"31","num_nodes":"25","size_leaf_vector":"1"}},{"base_weights":[8.999721E-3,-2.7953702E-1,7.541834E-1,-5.0278634E-1,3.5845575E-1,8.887388E-1,2.1840711E-1,-5.331361E-2,-4.669182E-1,5.113875E-1,-3.196422E-1,5.825679E-1,1.1323098E0,3.3416066E-1,-2.1171436E-1,-4.8903838E-2,-3.2585576E-2,1.4245051E-2,8.1727006E-2,-4.1114695E-2,2.8414419E-2,-1.0530951E-2,7.164423E-2,6.219204E-2,1.3039348E-1,-2.020101E-3,5.3473115E-2,-4.6087574E-2,3.609684E-2],"categories":[],"categories_nodes":[],"categories_segments":[],"categories_sizes":[],"default_left":[0,0,0,0,0,0,0,0,0,0,0,0,0,0,0,0,0,0,0,0,0,0,0,0,0,0,0,0,0],"id":17,"left_children":[1,3,5,7,9,11,13,-1,15,17,19,21,23,25,27,-1,-1,-1,-1,-1,-1,-1,-1,-1,-1,-1,-1,-1,-1],"loss_changes":[1.11469574E2,5.341365E1,1.0237831E1,5.290985E-2,1.0270938E1,7.941139E0,1.5829185E0,0E0,2.6232147E-1,8.902E0,1.1417944E0,4.9708233E0,4.7226944E0,1.7393017E0,1.1727018E0,0E0,0E0,0E0,0E0,0E0,0E0,0E0,0E0,0E0,0E0,0E0,0E0,0E0,0E0],"parents":[2147483647,0,0,1,1,2,2,3,3,4,4,5,5,6,6,8,8,9,9,10,10,11,11,12,12,13,13,14,14],"right_children":[2,4,6,8,10,12,14,-1,16,18,20,22,24,26,28,-1,-1,-1,-1,-1,-1,-1,-1,-1,-1,-1,-1,-1,-1],"split_conditions":[1E0,1E0,1E0,1E0,1E0,1E0,1.82E2,-5.331361E-2,1E0,1E0,1E0,1.64E2,1.97E2,1E0,1.92E2,-4.8903838E-2,-3.2585576E-2,1.4245051E-2,8.1727006E-2,-4.1114695E-2,2.8414419E-2,-1.0530951E-2,7.164423E-2,6.219204E-2,1.3039348E-1,-2.020101E-3,5.3473115E-2,-4.6087574E-2,3.609684E-2],"split_indices":[21,20,29,0,30,20,3,0,16,0,12,3,6,27,3,0,0,0,0,0,0,0,0,0,0,0,0,0,0],"split_type":[0,0,0,0,0,0,0,0,0,0,0,0,0,0,0,0,0,0,0,0,0,0,0,0,0,0,0,0,0],"sum_hessian":[5.164516E2,3.727477E2,1.4370386E2,2.7628186E2,9.6465866E1,1.1433169E2,2.937216E1,1.4214357E2,1.3413829E2,7.891416E1,1.7551702E1,5.215906E1,6.217263E1,2.3319546E1,6.052614E0,1.13822754E2,2.031553E1,3.6434624E1,4.2479538E1,1.5518848E1,2.0328536E0,8.532173E0,4.362689E1,1.6808905E1,4.5363724E1,8.753471E0,1.4566075E1,4.3536663E0,1.6989479E0],"tree_param":{"num_deleted":"0","num_feature":"31","num_nodes":"29","size_leaf_vector":"1"}},{"base_weights":[-6.6010645E-3,3.0508906E-1,-4.9782875E-1,4.2778352E-1,-3.4038562E-1,-3.67191E-1,-6.731873E-2,4.7863814E-1,6.788972E-2,-2.3652634E-1,-5.713458E-1,-1.8964526E-1,-5.4911906E-1,5.737857E-2,3.7375428E-2,3.2232236E-2,-1.8589359E-2,-4.469168E-2,-8.676597E-3,-6.108835E-2,3.5254635E-2,-6.156061E-3,-5.951951E-2,-5.961997E-2,-2.318386E-2],"categories":[],"categories_nodes":[],"categories_segments":[],"categories_sizes":[],"default_left":[0,0,0,0,0,0,0,0,0,0,0,0,0,0,0,0,0,0,0,0,0,0,0,0,0],"id":18,"left_children":[1,3,5,7,9,11,-1,13,15,17,19,21,23,-1,-1,-1,-1,-1,-1,-1,-1,-1,-1,-1,-1],"loss_changes":[2.2063731E2,6.996814E1,1.2567764E1,1.3534317E1,3.2560806E0,1.0321728E1,0E0,6.2654266E0,6.0611916E0,3.087708E0,1.7914791E0,8.528175E0,2.2352867E0,0E0,0E0,0E0,0E0,0E0,0E0,0E0,0E0,0E0,0E0,0E0,0E0],"parents":[2147483647,0,0,1,1,2,2,3,3,4,4,5,5,7,7,8,8,9,9,10,10,11,11,12,12],"right_children":[2,4,6,8,10,12,-1,14,16,18,20,22,24,-1,-1,-1,-1,-1,-1,-1,-1,-1,-1,-1,-1],"split_conditions":[1E0,1E0,1E0,1E0,1E0,1E0,-6.731873E-2,1E0,1E0,1.73E2,8.93E1,1E0,1E0,5.737857E-2,3.7375428E-2,3.2232236E-2,-1.8589359E-2,-4.469168E-2,-8.676597E-3,-6.108835E-2,3.5254635E-2,-6.156061E-3,-5.951951E-2,-5.961997E-2,-2.318386E-2],"split_indices":[23,22,22,25,30,0,0,0,28,3,2,14,30,0,0,0,0,0,0,0,0,0,0,0,0],"split_type":[0,0,0,0,0,0,0,0,0,0,0,0,0,0,0,0,0,0,0,0,0,0,0,0,0],"sum_hessian":[1.4390383E3,8.806401E2,5.5839825E2,7.402648E2,1.403753E2,3.2177655E2,2.3662167E2,6.483237E2,9.194106E1,9.8227844E1,4.2147465E1,1.6388333E2,1.5789322E2,3.3759598E2,3.1072775E2,4.5776936E1,4.6164127E1,4.002068E1,5.820716E1,4.0742687E1,1.4047755E0,1.2542287E2,3.8460464E1,1.3672566E2,2.1167557E1],"tree_param":{"num_deleted":"0","num_feature":"31","num_nodes":"25","size_leaf_vector":"1"}},{"base_weights":[-6.938956E-5,-3.6250132E-1,4.9616453E-1,-6.5208636E-2,-2.2642568E-1,6.0292727E-1,3.8457426E-1,-3.483123E-1,-1.2223228E-1,6.2153095E-1,2.5016075E-1,4.8379084E-1,1.3664718E-1,-4.2721137E-2,-1.0659196E-2,-1.7720593E-2,1.6492445E-2,6.72867E-2,5.0780322E-2,6.9155335E-2,-6.888421E-3,5.3430784E-2,2.126933E-2,4.101202E-2,-3.3194837E-3],"categories":[],"categories_nodes":[],"categories_segments":[],"categories_sizes":[],"default_left":[0,0,0,0,0,0,0,0,0,0,0,0,0,0,0,0,0,0,0,0,0,0,0,0,0],"id":19,"left_children":[1,3,5,-1,7,9,11,13,15,17,19,21,23,-1,-1,-1,-1,-1,-1,-1,-1,-1,-1,-1,-1],"loss_changes":[2.5095647E2,3.1628708E1,6.784851E0,0E0,6.9440517E0,1.8082886E0,7.085453E0,4.7795773E0,4.7356253E0,1.3138809E0,2.3942547E0,2.7245827E0,3.9378123E0,0E0,0E0,0E0,0E0,0E0,0E0,0E0,0E0,0E0,0E0,0E0,0E0],"parents":[2147483647,0,0,1,1,2,2,4,4,5,5,6,6,7,7,8,8,9,9,10,10,11,11,12,12],"right_children":[2,4,6,-1,8,10,12,14,16,18,20,22,24,-1,-1,-1,-1,-1,-1,-1,-1,-1,-1,-1,-1],"split_conditions":[1E0,1E0,6E0,-6.5208636E-2,1E0,1E0,1E0,1E0,1E0,1E0,1.69E2,1E0,1.71E2,-4.2721137E-2,-1.0659196E-2,-1.7720593E-2,1.6492445E-2,6.72867E-2,5.0780322E-2,6.9155335E-2,-6.888421E-3,5.3430784E-2,2.126933E-2,4.101202E-2,-3.3194837E-3],"split_indices":[23,18,19,0,28,5,20,14,24,13,3,17,3,0,0,0,0,0,0,0,0,0,0,0,0],"split_type":[0,0,0,0,0,0,0,0,0,0,0,0,0,0,0,0,0,0,0,0,0,0,0,0,0],"sum_hessian":[1.3933574E3,8.053947E2,5.879627E2,2.5625717E2,5.491376E2,2.9823068E2,2.89732E2,2.5200104E2,2.971365E2,2.8256723E2,1.566347E1,2.0624472E2,8.348728E1,1.8940924E2,6.2591797E1,2.4971387E2,4.7422653E1,1.9129935E2,9.1267876E1,6.081818E0,9.581653E0,1.7303082E2,3.321389E1,3.1443487E1,5.2043797E1],"tree_param":{"num_deleted":"0","num_feature":"31","num_nodes":"25","size_leaf_vector":"1"}},{"base_weights":[-6.9100345E-3,-3.3603823E-1,5.8985585E-1,-4.9523106E-1,3.0770376E-1,8.1394285E-1,-1.6379094E-1,-5.3034395E-2,-4.5612636E-1,6.55681E-1,-3.1864816E-1,5.244718E-1,1.1563917E0,3.2922137E-1,-4.640152E-1,-4.7687147E-2,-3.268871E-2,8.39013E-2,-2.060099E-3,-3.9323058E-2,6.585159E-2,1.420281E-2,8.269663E-2,1.2735048E-1,3.7924882E-2,-2.6145747E-2,8.466571E-2,-4.9646307E-2,-2.1245515E-3],"categories":[],"categories_nodes":[],"categories_segments":[],"categories_sizes":[],"default_left":[0,0,0,0,0,0,0,0,0,0,0,0,0,0,0,0,0,0,0,0,0,0,0,0,0,0,0,0,0],"id":20,"left_children":[1,3,5,7,9,11,13,-1,15,17,19,21,23,25,27,-1,-1,-1,-1,-1,-1,-1,-1,-1,-1,-1,-1,-1,-1],"loss_changes":[1.0109704E2,3.4148552E1,3.1033978E1,1.23809814E-1,1.4678671E1,1.3390877E1,6.482997E0,0E0,2.0112228E-1,5.349228E0,2.0359802E0,8.946724E0,5.328491E0,5.3474393E0,3.7730265E-1,0E0,0E0,0E0,0E0,0E0,0E0,0E0,0E0,0E0,0E0,0E0,0E0,0E0,0E0],"parents":[2147483647,0,0,1,1,2,2,3,3,4,4,5,5,6,6,8,8,9,9,10,10,11,11,12,12,13,13,14,14],"right_children":[2,4,6,8,10,12,14,-1,16,18,20,22,24,26,28,-1,-1,-1,-1,-1,-1,-1,-1,-1,-1,-1,-1,-1,-1],"split_conditions":[1E0,1E0,1E0,1E0,1E0,1E0,1E0,-5.3034395E-2,1E0,1E0,3.93E2,1E0,1E0,1E0,4.07E2,-4.7687147E-2,-3.268871E-2,8.39013E-2,-2.060099E-3,-3.9323058E-2,6.585159E-2,1.420281E-2,8.269663E-2,1.2735048E-1,3.7924882E-2,-2.6145747E-2,8.466571E-2,-4.9646307E-2,-2.1245515E-3],"split_indices":[20,21,22,0,23,21,23,0,16,29,6,0,24,21,6,0,0,0,0,0,0,0,0,0,0,0,0,0,0],"split_type":[0,0,0,0,0,0,0,0,0,0,0,0,0,0,0,0,0,0,0,0,0,0,0,0,0,0,0,0,0],"sum_hessian":[5.1270886E2,3.307375E2,1.8197137E2,2.653492E2,6.538828E1,1.4020364E2,4.176773E1,1.3319162E2,1.3215761E2,4.200505E1,2.338323E1,7.735079E1,6.2852856E1,1.5771699E1,2.599603E1,1.11560425E2,2.0597183E1,3.2857224E1,9.147827E0,2.2280262E1,1.1029693E0,3.4810013E1,4.254078E1,5.4066505E1,8.786351E0,7.5956216E0,8.176077E0,2.4108034E1,1.8879973E0],"tree_param":{"num_deleted":"0","num_feature":"31","num_nodes":"29","size_leaf_vector":"1"}},{"base_weights":[-3.9699153E-4,2.831658E-1,-4.6558022E-1,4.0363836E-1,-3.217475E-1,-3.354083E-1,-6.544698E-2,4.9271867E-1,-2.062753E-1,-3.8681617E-1,-5.2642994E-2,-2.5067306E-1,-6.1400586E-1,5.4808177E-2,8.500569E-3,4.775986E-3,-5.0899267E-2,-4.297871E-2,2.3088695E-3,-1.899712E-2,6.7476355E-2,-1.3974599E-2,-5.9856683E-2,-6.2294055E-2,-1.7684003E-2],"categories":[],"categories_nodes":[],"categories_segments":[],"categories_sizes":[],"default_left":[0,0,0,0,0,0,0,0,0,0,0,0,0,0,0,0,0,0,0,0,0,0,0,0,0],"id":21,"left_children":[1,3,5,7,9,11,-1,13,15,17,19,21,23,-1,-1,-1,-1,-1,-1,-1,-1,-1,-1,-1,-1],"loss_changes":[1.8673106E2,6.4223434E1,1.2962532E1,3.9973816E1,2.5470524E0,7.3871117E0,0E0,1.4414124E1,7.270676E0,2.086895E0,3.095758E0,9.434054E0,1.781311E-1,0E0,0E0,0E0,0E0,0E0,0E0,0E0,0E0,0E0,0E0,0E0,0E0],"parents":[2147483647,0,0,1,1,2,2,3,3,4,4,5,5,7,7,8,8,9,9,10,10,11,11,12,12],"right_children":[2,4,6,8,10,12,-1,14,16,18,20,22,24,-1,-1,-1,-1,-1,-1,-1,-1,-1,-1,-1,-1],"split_conditions":[1E0,1E0,1E0,1E0,1E0,1E0,-6.544698E-2,1E0,1E0,1E0,1E0,1E0,1.95E2,5.4808177E-2,8.500569E-3,4.775986E-3,-5.0899267E-2,-4.297871E-2,2.3088695E-3,-1.899712E-2,6.7476355E-2,-1.3974599E-2,-5.9856683E-2,-6.2294055E-2,-1.7684003E-2],"split_indices":[23,22,22,21,24,21,0,25,20,12,13,14,3,0,0,0,0,0,0,0,0,0,0,0,0],"split_type":[0,0,0,0,0,0,0,0,0,0,0,0,0,0,0,0,0,0,0,0,0,0,0,0,0],"sum_hessian":[1.4136095E3,8.784947E2,5.3511475E2,7.328712E2,1.4562346E2,3.1843985E2,2.1667491E2,6.3964124E2,9.322998E1,1.16916084E2,2.8707384E1,2.456311E2,7.280874E1,5.628658E2,7.677546E1,5.1148926E1,4.208106E1,1.0577865E2,1.1137438E1,2.4769878E1,3.9375055E0,1.8730876E2,5.832234E1,7.093405E1,1.8746853E0],"tree_param":{"num_deleted":"0","num_feature":"31","num_nodes":"25","size_leaf_vector":"1"}},{"base_weights":[-7.966363E-3,-2.4445885E-1,5.494212E-1,-6.348688E-2,-1.14607714E-1,5.0055707E-1,6.527392E-1,-1.7626755E-1,6.557385E-2,3.7912297E-1,5.6536084E-1,6.8483764E-1,3.574965E-1,-2.0917429E-2,-4.493182E-4,1.904006E-2,-9.714249E-3,4.35816E-2,4.895997E-3,4.7015328E-2,6.6756435E-2,7.138129E-2,3.4992766E-2,6.586882E-2,8.751074E-3],"categories":[],"categories_nodes":[],"categories_segments":[],"categories_sizes":[],"default_left":[0,0,0,0,0,0,0,0,0,0,0,0,0,0,0,0,0,0,0,0,0,0,0,0,0],"id":22,"left_children":[1,3,5,-1,7,9,11,13,15,17,19,21,23,-1,-1,-1,-1,-1,-1,-1,-1,-1,-1,-1,-1],"loss_changes":[1.8271098E2,4.9261505E1,1.7578735E0,0E0,8.138353E0,2.0254364E0,9.804535E-1,3.081152E0,3.8213625E0,1.8892488E0,1.4721527E0,8.712578E-1,1.1434394E0,0E0,0E0,0E0,0E0,0E0,0E0,0E0,0E0,0E0,0E0,0E0,0E0],"parents":[2147483647,0,0,1,1,2,2,4,4,5,5,6,6,7,7,8,8,9,9,10,10,11,11,12,12],"right_children":[2,4,6,-1,8,10,12,14,16,18,20,22,24,-1,-1,-1,-1,-1,-1,-1,-1,-1,-1,-1,-1],"split_conditions":[1E0,1E0,1E0,-6.348688E-2,1E0,1E0,1E0,1E0,1.77E2,1E0,6E0,1.91E2,6.5E1,-2.0917429E-2,-4.493182E-4,1.904006E-2,-9.714249E-3,4.35816E-2,4.895997E-3,4.7015328E-2,6.6756435E-2,7.138129E-2,3.4992766E-2,6.586882E-2,8.751074E-3],"split_indices":[22,18,30,0,14,27,26,24,3,24,19,3,2,0,0,0,0,0,0,0,0,0,0,0,0],"split_type":[0,0,0,0,0,0,0,0,0,0,0,0,0,0,0,0,0,0,0,0,0,0,0,0,0],"sum_hessian":[1.3840667E3,9.72155E2,4.1191162E2,2.4166792E2,7.3048706E2,2.836191E2,1.2829251E2,5.442584E2,1.8622864E2,1.0107244E2,1.8254668E2,1.1452223E2,1.3770283E1,4.5657486E2,8.768356E1,1.0528773E2,8.094091E1,8.598736E1,1.5085084E1,9.740721E1,8.513946E1,1.0436183E2,1.0160401E1,5.8284483E0,7.941835E0],"tree_param":{"num_deleted":"0","num_feature":"31","num_nodes":"25","size_leaf_vector":"1"}},{"base_weights":[-1.1350087E-2,-2.5637835E-1,5.628709E-1,-3.0553997E-1,4.492367E-3,7.762866E-1,5.766532E-2,-3.6194605E-1,-1.6625805E-1,-4.0762174E-1,3.5165122E-1,8.95483E-1,3.353704E-1,4.1656506E-1,-1.9858962E-1,-7.6313554E-3,-3.8744655E-2,-3.6278132E-2,-8.2541285E-3,-5.1757522E-2,1.5451004E-2,-3.1100124E-2,5.0335497E-2,9.393428E-2,1.4681826E-2,-4.723814E-2,5.240282E-2,9.432851E-2,1.5621741E-2,-4.5669165E-2,4.9440853E-2],"categories":[],"categories_nodes":[],"categories_segments":[],"categories_sizes":[],"default_left":[0,0,0,0,0,0,0,0,0,0,0,0,0,0,0,0,0,0,0,0,0,0,0,0,0,0,0,0,0,0,0],"id":23,"left_children":[1,3,5,7,9,11,13,15,17,19,21,23,25,27,29,-1,-1,-1,-1,-1,-1,-1,-1,-1,-1,-1,-1,-1,-1,-1,-1],"loss_changes":[6.994261E1,4.4694557E0,1.5986187E1,2.2430172E0,8.188115E0,5.1889954E0,4.243107E0,1.4840794E0,1.3907514E0,1.6976752E0,3.2786157E0,2.5422363E0,3.878364E0,2.4810112E0,5.0675445E0,0E0,0E0,0E0,0E0,0E0,0E0,0E0,0E0,0E0,0E0,0E0,0E0,0E0,0E0,0E0,0E0],"parents":[2147483647,0,0,1,1,2,2,3,3,4,4,5,5,6,6,7,7,8,8,9,9,10,10,11,11,12,12,13,13,14,14],"right_children":[2,4,6,8,10,12,14,16,18,20,22,24,26,28,30,-1,-1,-1,-1,-1,-1,-1,-1,-1,-1,-1,-1,-1,-1,-1,-1],"split_conditions":[1E0,1E0,1E0,1E0,1E0,1E0,1E0,1E0,6.19E1,8.02E1,1E0,8E0,1.83E2,5E0,1E0,-7.6313554E-3,-3.8744655E-2,-3.6278132E-2,-8.2541285E-3,-5.1757522E-2,1.5451004E-2,-3.1100124E-2,5.0335497E-2,9.393428E-2,1.4681826E-2,-4.723814E-2,5.240282E-2,9.432851E-2,1.5621741E-2,-4.5669165E-2,4.9440853E-2],"split_indices":[21,16,22,14,0,29,28,4,2,2,18,19,6,19,14,0,0,0,0,0,0,0,0,0,0,0,0,0,0,0,0],"split_type":[0,0,0,0,0,0,0,0,0,0,0,0,0,0,0,0,0,0,0,0,0,0,0,0,0,0,0,0,0,0,0],"sum_hessian":[4.9507755E2,3.4739337E2,1.4768416E2,2.9216336E2,5.5230007E1,1.0344779E2,4.423637E1,2.0681091E2,8.535245E1,2.5172928E1,3.0057081E1,8.062173E1,2.2826069E1,1.816694E1,2.606943E1,1.7277481E1,1.8953343E2,2.4501732E1,6.0850716E1,2.1120922E1,4.0520062E0,5.403624E0,2.4653458E1,7.591937E1,4.702357E0,4.0370865E0,1.8788982E1,5.141595E0,1.3025345E1,1.9243372E1,6.826059E0],"tree_param":{"num_deleted":"0","num_feature":"31","num_nodes":"31","size_leaf_vector":"1"}},{"base_weights":[8.524406E-3,6.3746965E-1,-1.459405E-1,6.67297E-2,4.5105726E-1,2.416863E-2,-5.05978E-1,5.554102E-1,5.1813643E-2,1.5028001E-1,-3.4048897E-1,-4.3595254E-1,-5.4477537E-1,6.901864E-2,1.887229E-2,-5.8652308E-2,4.7089376E-2,3.0383525E-2,-5.2883243E-4,-2.1511907E-2,-5.3991687E-2,-5.631209E-2,-3.587545E-2,-2.5760902E-2,-5.5547774E-2],"categories":[],"categories_nodes":[],"categories_segments":[],"categories_sizes":[],"default_left":[0,0,0,0,0,0,0,0,0,0,0,0,0,0,0,0,0,0,0,0,0,0,0,0,0],"id":24,"left_children":[1,3,5,-1,7,9,11,13,15,17,19,21,23,-1,-1,-1,-1,-1,-1,-1,-1,-1,-1,-1,-1],"loss_changes":[1.3437822E2,1.2154083E0,6.802693E1,0E0,1.6670637E0,3.477823E1,7.307205E-1,1.4594622E0,2.827602E0,1.3421809E1,4.743107E0,1.0944538E0,5.493851E-1,0E0,0E0,0E0,0E0,0E0,0E0,0E0,0E0,0E0,0E0,0E0,0E0],"parents":[2147483647,0,0,1,1,2,2,4,4,5,5,6,6,7,7,8,8,9,9,10,10,11,11,12,12],"right_children":[2,4,6,-1,8,10,12,14,16,18,20,22,24,-1,-1,-1,-1,-1,-1,-1,-1,-1,-1,-1,-1],"split_conditions":[1E0,1E0,1E0,6.67297E-2,1E0,1E0,1E0,7.89E1,1E0,1E0,1E0,1.71E2,4.77E1,6.901864E-2,1.887229E-2,-5.8652308E-2,4.7089376E-2,3.0383525E-2,-5.2883243E-4,-2.1511907E-2,-5.3991687E-2,-5.631209E-2,-3.587545E-2,-2.5760902E-2,-5.5547774E-2],"split_indices":[18,20,22,0,29,20,27,2,27,0,21,3,2,0,0,0,0,0,0,0,0,0,0,0,0],"split_type":[0,0,0,0,0,0,0,0,0,0,0,0,0,0,0,0,0,0,0,0,0,0,0,0,0],"sum_hessian":[1.3812465E3,2.717237E2,1.1095228E3,2.3201921E2,3.970449E1,7.5414166E2,3.553811E2,3.1167007E1,8.537481E0,5.6078906E2,1.9335263E2,1.3106268E2,2.2431842E2,2.2145275E1,9.021732E0,3.2252614E0,5.31222E0,2.8174094E2,2.7904813E2,1.1999605E2,7.335658E1,4.7130356E1,8.3932335E1,8.960493E0,2.1535794E2],"tree_param":{"num_deleted":"0","num_feature":"31","num_nodes":"25","size_leaf_vector":"1"}},{"base_weights":[-2.5240544E-3,-3.5166758E-1,4.6696535E-1,-6.1911788E-2,-2.4094938E-1,3.4254217E-1,5.36625E-1,-3.0773416E-1,-1.4803066E-2,2.4349959E-1,6.405044E-1,2.6099208E-1,5.614602E-1,-3.849246E-2,1.0733858E-3,8.235456E-3,-5.8158614E-2,2.957583E-2,-3.0549718E-2,3.0783205E-3,6.5636806E-2,6.265379E-2,2.7038702E-3,5.7957526E-2,3.0411912E-2],"categories":[],"categories_nodes":[],"categories_segments":[],"categories_sizes":[],"default_left":[0,0,0,0,0,0,0,0,0,0,0,0,0,0,0,0,0,0,0,0,0,0,0,0,0],"id":25,"left_children":[1,3,5,-1,7,9,11,13,15,17,19,21,23,-1,-1,-1,-1,-1,-1,-1,-1,-1,-1,-1,-1],"loss_changes":[2.2295041E2,2.2948845E1,4.8439713E0,0E0,8.351944E0,6.069935E0,2.3870773E0,1.0503414E1,7.0522003E0,4.679326E0,4.8293686E-1,2.7591345E0,1.4024887E0,0E0,0E0,0E0,0E0,0E0,0E0,0E0,0E0,0E0,0E0,0E0,0E0],"parents":[2147483647,0,0,1,1,2,2,4,4,5,5,6,6,7,7,8,8,9,9,10,10,11,11,12,12],"right_children":[2,4,6,-1,8,10,12,14,16,18,20,22,24,-1,-1,-1,-1,-1,-1,-1,-1,-1,-1,-1,-1],"split_conditions":[1E0,1E0,1E0,-6.1911788E-2,1E0,1E0,1E0,1E0,1E0,3.68E2,4.88E1,1E0,1E0,-3.849246E-2,1.0733858E-3,8.235456E-3,-5.8158614E-2,2.957583E-2,-3.0549718E-2,3.0783205E-3,6.5636806E-2,6.265379E-2,2.7038702E-3,5.7957526E-2,3.0411912E-2],"split_indices":[23,18,28,0,25,14,4,30,10,6,2,27,17,0,0,0,0,0,0,0,0,0,0,0,0],"split_type":[0,0,0,0,0,0,0,0,0,0,0,0,0,0,0,0,0,0,0,0,0,0,0,0,0],"sum_hessian":[1.3581221E3,7.7903265E2,5.790895E2,2.2673676E2,5.522959E2,2.0996906E2,3.6912045E2,4.2610052E2,1.2619537E2,1.5895099E2,5.1018055E1,3.1460876E1,3.3765958E2,3.4280307E2,8.329744E1,1.0845822E2,1.7737148E1,1.455568E2,1.33942E1,1.3682886E0,4.9649765E1,1.1622692E1,1.9838184E1,3.1428397E2,2.33756E1],"tree_param":{"num_deleted":"0","num_feature":"31","num_nodes":"25","size_leaf_vector":"1"}},{"base_weights":[4.939464E-2,-3.020677E-1,6.331592E-1,-2.068429E-1,-4.5605418E-1,8.150379E-1,-4.525965E-2,-5.201095E-2,-6.280439E-2,-4.6329403E-1,-2.2317066E-3,9.139021E-1,1.8256174E-1,3.778028E-1,-3.6250964E-1,-2.707122E-2,1.2493852E-2,-4.8294544E-2,-2.864224E-2,2.0619655E-2,1.026633E-1,-3.5256565E-2,6.787117E-2,8.992169E-2,4.2554815E-3,-4.3345373E-2,1.771402E-2],"categories":[],"categories_nodes":[],"categories_segments":[],"categories_sizes":[],"default_left":[0,0,0,0,0,0,0,0,0,0,0,0,0,0,0,0,0,0,0,0,0,0,0,0,0,0,0],"id":26,"left_children":[1,3,5,7,9,11,13,-1,15,17,-1,19,21,23,25,-1,-1,-1,-1,-1,-1,-1,-1,-1,-1,-1,-1],"loss_changes":[1.0220003E2,4.4662533E0,2.3131607E1,8.721438E0,3.6024094E-1,9.065674E0,5.57506E0,0E0,5.265755E0,2.6494598E-1,0E0,9.955643E0,5.870465E0,3.0824573E0,9.827802E-1,0E0,0E0,0E0,0E0,0E0,0E0,0E0,0E0,0E0,0E0,0E0,0E0],"parents":[2147483647,0,0,1,1,2,2,3,3,4,4,5,5,6,6,8,8,9,9,11,11,12,12,13,13,14,14],"right_children":[2,4,6,8,10,12,14,-1,16,18,-1,20,22,24,26,-1,-1,-1,-1,-1,-1,-1,-1,-1,-1,-1,-1],"split_conditions":[1E0,1E0,1E0,1E0,1.98E2,1E0,1E0,-5.201095E-2,1E0,1E0,-2.2317066E-3,1E0,6E0,1E0,1.89E2,-2.707122E-2,1.2493852E-2,-4.8294544E-2,-2.864224E-2,2.0619655E-2,1.026633E-1,-3.5256565E-2,6.787117E-2,8.992169E-2,4.2554815E-3,-4.3345373E-2,1.771402E-2],"split_indices":[20,23,22,18,3,24,23,0,0,11,0,18,19,28,3,0,0,0,0,0,0,0,0,0,0,0,0],"split_type":[0,0,0,0,0,0,0,0,0,0,0,0,0,0,0,0,0,0,0,0,0,0,0,0,0,0,0],"sum_hessian":[4.961884E2,3.1001984E2,1.8616853E2,1.930077E2,1.17012146E2,1.4665115E2,3.951738E1,5.996974E1,1.3303796E2,1.1502405E2,1.9881032E0,1.2644173E2,2.0209423E1,1.6852798E1,2.2664583E1,6.2919044E1,7.011891E1,1.01964714E2,1.3059333E1,1.7762281E1,1.0867945E2,9.86203E0,1.0347393E1,5.936877E0,1.0915921E1,2.0205137E1,2.4594457E0],"tree_param":{"num_deleted":"0","num_feature":"31","num_nodes":"27","size_leaf_vector":"1"}},{"base_weights":[-1.5053247E-2,2.4799034E-1,-4.456273E-1,3.6167243E-1,-3.1286407E-1,-3.2900423E-1,-6.1979055E-1,4.4614434E-1,-2.3645203E-1,-1.7435953E-2,-3.8489237E-1,-1.6476592E-1,-4.8966694E-1,-6.331972E-2,-3.944483E-1,5.199123E-2,1.180675E-2,-2.979643E-2,5.3893875E-2,-3.7827145E-2,2.1624243E-2,-4.371923E-2,-1.5388638E-2,-4.7991956E-3,-5.3725738E-2,-5.481395E-2,-1.3590345E-2,-5.9281148E-2,1.9090284E-2],"categories":[],"categories_nodes":[],"categories_segments":[],"categories_sizes":[],"default_left":[0,0,0,0,0,0,0,0,0,0,0,0,0,0,0,0,0,0,0,0,0,0,0,0,0,0,0,0,0],"id":27,"left_children":[1,3,5,7,9,11,13,15,17,19,21,23,25,-1,27,-1,-1,-1,-1,-1,-1,-1,-1,-1,-1,-1,-1,-1,-1],"loss_changes":[1.5136597E2,5.3011456E1,1.0090233E1,3.4982567E1,2.9800692E0,7.9853554E0,3.6089325E-1,1.4585861E1,4.266191E0,2.490041E0,1.2955322E0,6.614795E0,3.1114082E0,0E0,1.7390409E0,0E0,0E0,0E0,0E0,0E0,0E0,0E0,0E0,0E0,0E0,0E0,0E0,0E0,0E0],"parents":[2147483647,0,0,1,1,2,2,3,3,4,4,5,5,6,6,7,7,8,8,9,9,10,10,11,11,12,12,14,14],"right_children":[2,4,6,8,10,12,14,16,18,20,22,24,26,-1,28,-1,-1,-1,-1,-1,-1,-1,-1,-1,-1,-1,-1,-1,-1],"split_conditions":[1E0,1E0,1E0,1E0,5.85E1,1E0,1E0,1E0,1E0,1.71E2,1E0,1E0,1E0,-6.331972E-2,1E0,5.199123E-2,1.180675E-2,-2.979643E-2,5.3893875E-2,-3.7827145E-2,2.1624243E-2,-4.371923E-2,-1.5388638E-2,-4.7991956E-3,-5.3725738E-2,-5.481395E-2,-1.3590345E-2,-5.9281148E-2,1.9090284E-2],"split_indices":[23,22,22,21,2,0,5,20,12,3,24,25,30,0,9,0,0,0,0,0,0,0,0,0,0,0,0,0,0],"split_type":[0,0,0,0,0,0,0,0,0,0,0,0,0,0,0,0,0,0,0,0,0,0,0,0,0,0,0,0,0],"sum_hessian":[1.3344741E3,8.28659E2,5.058151E2,6.8929736E2,1.3936162E2,3.0468274E2,2.0113234E2,6.042189E2,8.5078514E1,2.7560942E1,1.11800674E2,1.5166644E2,1.5301631E2,1.8812975E2,1.30026E1,4.92823E2,1.1139587E2,7.939571E1,5.6827936E0,1.0589834E1,1.6971107E1,9.043384E1,2.1366837E1,1.16327324E2,3.533912E1,1.3084058E2,2.2175735E1,9.702038E0,3.300561E0],"tree_param":{"num_deleted":"0","num_feature":"31","num_nodes":"29","size_leaf_vector":"1"}},{"base_weights":[6.373867E-3,-1.9779505E-1,5.012984E-1,-6.087342E-2,-7.448037E-2,3.9602694E-1,5.623404E-1,-2.1924669E-1,3.3057723E-2,1.661806E-1,4.903615E-1,5.784968E-1,3.1563708E-1,-2.9268134E-2,9.16975E-4,-2.5204327E-3,3.1745136E-2,2.8453654E-2,-2.0584984E-2,5.7181932E-2,-1.8736893E-2,2.0527268E-2,5.861966E-2,4.575059E-2,-1.5399243E-2],"categories":[],"categories_nodes":[],"categories_segments":[],"categories_sizes":[],"default_left":[0,0,0,0,0,0,0,0,0,0,0,0,0,0,0,0,0,0,0,0,0,0,0,0,0],"id":28,"left_children":[1,3,5,-1,7,9,11,13,15,17,19,21,23,-1,-1,-1,-1,-1,-1,-1,-1,-1,-1,-1,-1],"loss_changes":[1.3278467E2,4.7098595E1,2.2433853E0,0E0,1.1165194E1,3.0458946E0,7.761383E-1,5.129012E0,6.836409E0,1.973272E0,5.724476E0,5.2495575E-1,1.2020861E0,0E0,0E0,0E0,0E0,0E0,0E0,0E0,0E0,0E0,0E0,0E0,0E0],"parents":[2147483647,0,0,1,1,2,2,4,4,5,5,6,6,7,7,8,8,9,9,10,10,11,11,12,12],"right_children":[2,4,6,-1,8,10,12,14,16,18,20,22,24,-1,-1,-1,-1,-1,-1,-1,-1,-1,-1,-1,-1],"split_conditions":[1E0,1E0,1E0,-6.087342E-2,1E0,5E0,1.92E2,1E0,1E0,1E0,1E0,1.53E2,1E0,-2.9268134E-2,9.16975E-4,-2.5204327E-3,3.1745136E-2,2.8453654E-2,-2.0584984E-2,5.7181932E-2,-1.8736893E-2,2.0527268E-2,5.861966E-2,4.575059E-2,-1.5399243E-2],"split_indices":[22,18,28,0,28,19,3,14,24,21,10,3,20,0,0,0,0,0,0,0,0,0,0,0,0],"split_type":[0,0,0,0,0,0,0,0,0,0,0,0,0,0,0,0,0,0,0,0,0,0,0,0,0],"sum_hessian":[1.3120912E3,9.293225E2,3.827687E2,2.1359451E2,7.15728E2,1.4323566E2,2.3953304E2,3.046174E2,4.111106E2,4.248427E1,1.00751396E2,2.2354811E2,1.5984922E1,2.3029686E2,7.432056E1,3.419655E2,6.914508E1,3.2409004E1,1.0075264E1,9.008068E1,1.0670708E1,5.077778E0,2.1847034E2,1.2296215E1,3.688707E0],"tree_param":{"num_deleted":"0","num_feature":"31","num_nodes":"25","size_leaf_vector":"1"}},{"base_weights":[1.586453E-2,-2.932026E-1,4.9354276E-1,-4.8352578E-1,3.5259652E-1,6.841695E-1,-2.02319E-1,-5.2383263E-2,-4.4113737E-1,2.3014136E-1,8.7154317E-1,1.9823825E-2,7.787253E-1,-4.2602563E-1,-2.7345214E-2,-4.631934E-2,-3.1644087E-2,9.734171E-3,8.056911E-2,1.3538744E-1,1.5138864E-2,4.361515E-2,-2.1752132E-2,8.935291E-2,5.969546E-3,-1.3844142E-2,-5.198133E-2,3.9169513E-2,-2.420826E-2],"categories":[],"categories_nodes":[],"categories_segments":[],"categories_sizes":[],"default_left":[0,0,0,0,0,0,0,0,0,0,0,0,0,0,0,0,0,0,0,0,0,0,0,0,0,0,0,0,0],"id":29,"left_children":[1,3,5,7,9,11,13,-1,15,17,19,21,23,25,27,-1,-1,-1,-1,-1,-1,-1,-1,-1,-1,-1,-1,-1,-1],"loss_changes":[7.135419E1,3.624241E1,2.5322628E1,1.569252E-1,4.0814056E0,9.36058E0,1.6165863E0,0E0,1.7528343E-1,4.192374E0,4.138921E0,2.0338824E0,1.0730202E1,4.1859388E-1,2.2912858E0,0E0,0E0,0E0,0E0,0E0,0E0,0E0,0E0,0E0,0E0,0E0,0E0,0E0,0E0],"parents":[2147483647,0,0,1,1,2,2,3,3,4,4,5,5,6,6,8,8,9,9,10,10,11,11,12,12,13,13,14,14],"right_children":[2,4,6,8,10,12,14,-1,16,18,20,22,24,26,28,-1,-1,-1,-1,-1,-1,-1,-1,-1,-1,-1,-1,-1,-1],"split_conditions":[1E0,1E0,1E0,1E0,1E0,1E0,1.73E2,-5.2383263E-2,1E0,1E0,1E0,1E0,1E0,1.63E2,1E0,-4.631934E-2,-3.1644087E-2,9.734171E-3,8.056911E-2,1.3538744E-1,1.5138864E-2,4.361515E-2,-2.1752132E-2,8.935291E-2,5.969546E-3,-1.3844142E-2,-5.198133E-2,3.9169513E-2,-2.420826E-2],"split_indices":[20,21,22,0,13,18,3,0,16,30,28,27,24,3,28,0,0,0,0,0,0,0,0,0,0,0,0,0,0],"split_type":[0,0,0,0,0,0,0,0,0,0,0,0,0,0,0,0,0,0,0,0,0,0,0,0,0,0,0,0,0],"sum_hessian":[4.8133588E2,2.9248108E2,1.8885478E2,2.2609886E2,6.6382225E1,1.4825745E2,4.059734E1,1.1007316E2,1.160257E2,5.4876556E1,1.15056715E1,1.8622957E1,1.2963449E2,1.7187748E1,2.3409592E1,9.628117E1,1.9744532E1,4.5538376E1,9.338183E0,6.3636026E0,5.1420684E0,6.45776E0,1.2165197E1,1.1157689E2,1.8057598E1,4.8357735E0,1.2351974E1,7.6524568E0,1.5757135E1],"tree_param":{"num_deleted":"0","num_feature":"31","num_nodes":"29","size_leaf_vector":"1"}},{"base_weights":[-3.915842E-3,1.508187E-1,-4.6730778E-1,2.47614E-1,-1.6709447E-1,-4.9519113E-1,-3.15004E-1,3.3199167E-1,-1.725311E-1,-2.160461E-1,1.5307347E-1,-3.2785574E-1,-5.1378703E-1,-5.1180995E-1,-8.7954834E-2,4.730037E-2,1.8430997E-2,-1.2107165E-2,-6.679895E-2,-1.5848387E-2,-4.799543E-2,2.1729037E-2,-6.964343E-2,-8.643913E-3,-4.861614E-2,-4.319229E-2,-5.578463E-2,-5.6106307E-2,-1.6871741E-2,2.3755888E-2,-2.944583E-2],"categories":[],"categories_nodes":[],"categories_segments":[],"categories_sizes":[],"default_left":[0,0,0,0,0,0,0,0,0,0,0,0,0,0,0,0,0,0,0,0,0,0,0,0,0,0,0,0,0,0,0],"id":30,"left_children":[1,3,5,7,9,11,13,15,17,19,21,23,25,27,29,-1,-1,-1,-1,-1,-1,-1,-1,-1,-1,-1,-1,-1,-1,-1,-1],"loss_changes":[9.356019E1,3.0143532E1,1.2311401E0,2.665599E1,3.6208482E0,6.8523407E-1,2.3363996E0,1.2931671E1,3.135188E0,2.9465837E0,1.8393989E0,1.112205E0,6.4323425E-1,3.8425112E-1,1.8145112E0,0E0,0E0,0E0,0E0,0E0,0E0,0E0,0E0,0E0,0E0,0E0,0E0,0E0,0E0,0E0,0E0],"parents":[2147483647,0,0,1,1,2,2,3,3,4,4,5,5,6,6,7,7,8,8,9,9,10,10,11,11,12,12,13,13,14,14],"right_children":[2,4,6,8,10,12,14,16,18,20,22,24,26,28,30,-1,-1,-1,-1,-1,-1,-1,-1,-1,-1,-1,-1,-1,-1,-1,-1],"split_conditions":[1E0,1E0,1E0,1E0,1E0,4E0,1E0,1E0,8E0,8.02E1,1E0,1E0,1E0,1E0,1E0,4.730037E-2,1.8430997E-2,-1.2107165E-2,-6.679895E-2,-1.5848387E-2,-4.799543E-2,2.1729037E-2,-6.964343E-2,-8.643913E-3,-4.861614E-2,-4.319229E-2,-5.578463E-2,-5.6106307E-2,-1.6871741E-2,2.3755888E-2,-2.944583E-2],"split_indices":[22,20,24,25,30,19,0,0,19,2,12,28,27,13,27,0,0,0,0,0,0,0,0,0,0,0,0,0,0,0,0],"split_type":[0,0,0,0,0,0,0,0,0,0,0,0,0,0,0,0,0,0,0,0,0,0,0,0,0,0,0,0,0,0,0],"sum_hessian":[1.3028512E3,9.772164E2,3.2563483E2,7.492981E2,2.2791829E2,2.73341E2,5.2293842E1,6.241583E2,1.2513979E2,1.9797447E2,2.9943819E1,2.9201471E1,2.4413953E2,2.7340738E1,2.4953102E1,3.1816223E2,3.059961E2,1.1449268E2,1.0647112E1,1.6383926E2,3.4135204E1,2.853127E1,1.4125495E0,1.2177215E1,1.7024258E1,8.9201836E1,1.549377E2,2.3352962E1,3.987776E0,9.627221E0,1.5325882E1],"tree_param":{"num_deleted":"0","num_feature":"31","num_nodes":"31","size_leaf_vector":"1"}},{"base_weights":[-5.0989697E-3,-1.9921246E-1,4.6966824E-1,-5.9720423E-2,-8.227237E-2,3.5635972E-1,5.3427345E-1,-1.7403612E-1,2.1987236E-1,1.2818778E-1,4.4976604E-1,5.749216E-1,3.8191995E-1,-3.3201724E-2,-2.2373474E-3,1.6402275E-3,3.6361575E-2,2.2815356E-2,-2.5209395E-2,5.1757913E-2,-1.3054499E-2,5.9008252E-2,2.7900476E-2,5.1512446E-2,1.1740929E-2],"categories":[],"categories_nodes":[],"categories_segments":[],"categories_sizes":[],"default_left":[0,0,0,0,0,0,0,0,0,0,0,0,0,0,0,0,0,0,0,0,0,0,0,0,0],"id":31,"left_children":[1,3,5,-1,7,9,11,13,15,17,19,21,23,-1,-1,-1,-1,-1,-1,-1,-1,-1,-1,-1,-1],"loss_changes":[1.1714108E2,4.1939655E1,2.5099182E0,0E0,1.940374E1,2.8611794E0,1.222908E0,1.2842415E1,4.765855E0,1.6229122E0,3.8759022E0,6.513901E-1,1.7729378E0,0E0,0E0,0E0,0E0,0E0,0E0,0E0,0E0,0E0,0E0,0E0,0E0],"parents":[2147483647,0,0,1,1,2,2,4,4,5,5,6,6,7,7,8,8,9,9,10,10,11,11,12,12],"right_children":[2,4,6,-1,8,10,12,14,16,18,20,22,24,-1,-1,-1,-1,-1,-1,-1,-1,-1,-1,-1,-1],"split_conditions":[1E0,1E0,1E0,-5.9720423E-2,1E0,5E0,3.12E2,1E0,1E0,1E0,1E0,2.5E1,1.81E2,-3.3201724E-2,-2.2373474E-3,1.6402275E-3,3.6361575E-2,2.2815356E-2,-2.5209395E-2,5.1757913E-2,-1.3054499E-2,5.9008252E-2,2.7900476E-2,5.1512446E-2,1.1740929E-2],"split_indices":[22,18,28,0,25,19,6,0,28,25,10,1,3,0,0,0,0,0,0,0,0,0,0,0,0],"split_type":[0,0,0,0,0,0,0,0,0,0,0,0,0,0,0,0,0,0,0,0,0,0,0,0,0],"sum_hessian":[1.2690645E3,9.011857E2,3.6787875E2,2.0372499E2,6.9746075E2,1.359527E2,2.3192604E2,5.353076E2,1.6215315E2,4.0178204E1,9.57745E1,1.8089053E2,5.10355E1,2.6160968E2,2.736979E2,6.759124E1,9.4561905E1,3.213169E1,8.046512E0,8.5850426E1,9.924077E0,1.711289E2,9.761634E0,3.3312336E1,1.7723166E1],"tree_param":{"num_deleted":"0","num_feature":"31","num_nodes":"25","size_leaf_vector":"1"}},{"base_weights":[3.0649083E-2,-2.8131023E-1,4.737052E-1,-4.7856447E-1,3.1443968E-1,6.1444396E-1,-1.0736675E-1,-4.504031E-1,-5.2153468E-2,5.5957353E-1,-2.1744071E-1,1.0985281E-1,6.870663E-1,2.4896562E-1,-3.9115027E-1,-4.630743E-2,-5.0461604E-3,4.1738365E-2,1.1822454E-1,-4.2872623E-2,7.224741E-3,4.8083253E-2,-1.4793202E-2,8.0860004E-2,2.0947939E-2,-1.9405963E-2,6.838246E-2,-4.6978585E-2,1.5897503E-2],"categories":[],"categories_nodes":[],"categories_segments":[],"categories_sizes":[],"default_left":[0,0,0,0,0,0,0,0,0,0,0,0,0,0,0,0,0,0,0,0,0,0,0,0,0,0,0,0,0],"id":32,"left_children":[1,3,5,7,9,11,13,15,-1,17,19,21,23,25,27,-1,-1,-1,-1,-1,-1,-1,-1,-1,-1,-1,-1,-1,-1],"loss_changes":[6.6508736E1,3.33407E1,1.6323387E1,2.2338867E-2,9.360198E0,5.794384E0,4.103053E0,6.645756E-1,0E0,3.8256836E0,1.443286E0,2.112308E0,7.947319E0,3.633708E0,1.0454252E0,0E0,0E0,0E0,0E0,0E0,0E0,0E0,0E0,0E0,0E0,0E0,0E0,0E0,0E0],"parents":[2147483647,0,0,1,1,2,2,3,3,4,4,5,5,6,6,7,7,9,9,10,10,11,11,12,12,13,13,14,14],"right_children":[2,4,6,8,10,12,14,16,-1,18,20,22,24,26,28,-1,-1,-1,-1,-1,-1,-1,-1,-1,-1,-1,-1,-1,-1],"split_conditions":[1E0,1E0,1E0,7.29E1,1E0,1E0,1E0,7.23E1,-5.2153468E-2,1E0,2.7E2,1E0,1E0,1E0,1.89E2,-4.630743E-2,-5.0461604E-3,4.1738365E-2,1.1822454E-1,-4.2872623E-2,7.224741E-3,4.8083253E-2,-1.4793202E-2,8.0860004E-2,2.0947939E-2,-1.9405963E-2,6.838246E-2,-4.6978585E-2,1.5897503E-2],"split_indices":[20,21,22,2,23,18,23,2,0,30,6,27,25,21,3,0,0,0,0,0,0,0,0,0,0,0,0,0,0],"split_type":[0,0,0,0,0,0,0,0,0,0,0,0,0,0,0,0,0,0,0,0,0,0,0,0,0,0,0,0,0],"sum_hessian":[4.7923187E2,2.814358E2,1.9779608E2,2.1157837E2,6.9857414E1,1.5918353E2,3.8612545E1,1.3474948E2,7.6828896E1,4.7783028E1,2.2074383E1,2.0343872E1,1.3883966E2,1.717255E1,2.1439997E1,1.3045836E2,4.2911215E0,4.0259827E1,7.523201E0,1.2486981E1,9.587401E0,7.9859686E0,1.2357903E1,1.1012306E2,2.8716602E1,8.780698E0,8.391851E0,1.8886393E1,2.5536053E0],"tree_param":{"num_deleted":"0","num_feature":"31","num_nodes":"29","size_leaf_vector":"1"}},{"base_weights":[-1.0082937E-2,2.3569773E-1,-4.0473115E-1,5.741549E-1,9.712284E-2,-2.8615177E-1,-6.017077E-2,6.172966E-2,3.5037777E-1,2.0300186E-1,-2.2945774E-1,-4.9079555E-1,-1.820414E-1,4.6327464E-2,-2.4878986E-5,3.0635241E-2,-9.923595E-3,-2.8081745E-2,1.6093636E-2,-5.4995235E-2,-2.4433976E-2,-8.928757E-3,-5.104801E-2],"categories":[],"categories_nodes":[],"categories_segments":[],"categories_sizes":[],"default_left":[0,0,0,0,0,0,0,0,0,0,0,0,0,0,0,0,0,0,0,0,0,0,0],"id":33,"left_children":[1,3,5,7,9,11,-1,-1,13,15,17,19,21,-1,-1,-1,-1,-1,-1,-1,-1,-1,-1],"loss_changes":[1.23051865E2,3.6610973E1,1.1199455E1,1.9742203E0,1.9267836E1,6.4261265E0,0E0,0E0,1.5433588E0,1.315955E1,2.7834058E0,1.3604431E0,6.177681E0,0E0,0E0,0E0,0E0,0E0,0E0,0E0,0E0,0E0,0E0],"parents":[2147483647,0,0,1,1,2,2,3,3,4,4,5,5,8,8,9,9,10,10,11,11,12,12],"right_children":[2,4,6,8,10,12,-1,-1,14,16,18,20,22,-1,-1,-1,-1,-1,-1,-1,-1,-1,-1],"split_conditions":[1E0,1E0,1E0,1E0,1E0,1E0,-6.017077E-2,6.172966E-2,1E0,1E0,1E0,1E0,1E0,4.6327464E-2,-2.4878986E-5,3.0635241E-2,-9.923595E-3,-2.8081745E-2,1.6093636E-2,-5.4995235E-2,-2.4433976E-2,-8.928757E-3,-5.104801E-2],"split_indices":[23,18,22,20,22,27,0,0,29,20,10,16,14,0,0,0,0,0,0,0,0,0,0],"split_type":[0,0,0,0,0,0,0,0,0,0,0,0,0,0,0,0,0,0,0,0,0,0,0],"sum_hessian":[1.266633E3,7.8077905E2,4.858541E2,2.2589842E2,5.548806E2,3.0481122E2,1.8104288E2,1.8791249E2,3.7985924E1,4.1931503E2,1.3556558E2,1.01528404E2,2.032828E2,2.8490955E1,9.4949665E0,3.1245654E2,1.0685848E2,1.2005234E2,1.5513246E1,8.088269E1,2.064571E1,1.5950821E2,4.37746E1],"tree_param":{"num_deleted":"0","num_feature":"31","num_nodes":"23","size_leaf_vector":"1"}},{"base_weights":[-4.8737717E-3,-1.9097292E-1,4.465018E-1,-5.8328386E-2,-8.532415E-2,3.8616833E-1,5.8567166E-1,-1.6568373E-1,1.8434092E-1,4.953554E-1,3.1089905E-1,5.982236E-1,9.39171E-2,-3.0505542E-2,-2.7813464E-3,2.2895124E-2,-1.521347E-2,1.8710531E-3,5.181557E-2,7.671838E-4,3.5221934E-2,5.9192013E-3,6.045697E-2,4.235667E-2,-3.0465439E-2],"categories":[],"categories_nodes":[],"categories_segments":[],"categories_sizes":[],"default_left":[0,0,0,0,0,0,0,0,0,0,0,0,0,0,0,0,0,0,0,0,0,0,0,0,0],"id":34,"left_children":[1,3,5,-1,7,9,11,13,15,17,19,21,23,-1,-1,-1,-1,-1,-1,-1,-1,-1,-1,-1,-1],"loss_changes":[1.06779625E2,3.7255234E1,2.8898163E0,0E0,1.5422279E1,1.9976463E0,6.245918E-1,1.0516325E1,2.4896064E0,1.1330128E0,1.9726944E0,3.3146667E-1,6.4557624E-1,0E0,0E0,0E0,0E0,0E0,0E0,0E0,0E0,0E0,0E0,0E0,0E0],"parents":[2147483647,0,0,1,1,2,2,4,4,5,5,6,6,7,7,8,8,9,9,10,10,11,11,12,12],"right_children":[2,4,6,-1,8,10,12,14,16,18,20,22,24,-1,-1,-1,-1,-1,-1,-1,-1,-1,-1,-1,-1],"split_conditions":[1E0,1E0,1E0,-5.8328386E-2,1E0,1.73E2,8.98E1,1E0,1E0,1.05E2,1.75E2,1.48E2,2.2E1,-3.0505542E-2,-2.7813464E-3,2.2895124E-2,-1.521347E-2,1.8710531E-3,5.181557E-2,7.671838E-4,3.5221934E-2,5.9192013E-3,6.045697E-2,4.235667E-2,-3.0465439E-2],"split_indices":[22,18,30,0,25,3,2,0,30,6,3,3,1,0,0,0,0,0,0,0,0,0,0,0,0],"split_type":[0,0,0,0,0,0,0,0,0,0,0,0,0,0,0,0,0,0,0,0,0,0,0,0,0],"sum_hessian":[1.2691617E3,8.990615E2,3.701002E2,1.8978868E2,7.092728E2,2.6080832E2,1.0929186E2,5.467332E2,1.6253966E2,1.0414805E2,1.5666028E2,1.0636052E2,2.9313416E0,2.7128317E2,2.7545E2,1.4379477E2,1.8744904E1,4.8375964E0,9.9310455E1,1.8929878E1,1.377304E2,1.3577956E0,1.0500272E2,1.5700643E0,1.3612772E0],"tree_param":{"num_deleted":"0","num_feature":"31","num_nodes":"25","size_leaf_vector":"1"}},{"base_weights":[9.6417805E-3,-3.08538E-1,4.4483668E-1,-4.797819E-1,1.9023605E-1,1.8435311E-1,5.8095235E-1,-5.1968057E-2,-4.3745944E-1,4.290569E-1,-2.7563545E-1,2.6488516E-1,-3.2990128E-1,-1.8692562E-1,6.1289626E-1,-3.7573945E-2,-4.9771003E-2,-4.171122E-2,5.822896E-2,-3.7967186E-2,4.1729044E-2,-3.008989E-2,3.686498E-2,-4.997961E-2,2.5408808E-3,1.7883714E-2,-4.6511374E-2,7.294311E-2,4.1115258E-2],"categories":[],"categories_nodes":[],"categories_segments":[],"categories_sizes":[],"default_left":[0,0,0,0,0,0,0,0,0,0,0,0,0,0,0,0,0,0,0,0,0,0,0,0,0,0,0,0,0],"id":35,"left_children":[1,3,5,7,9,11,13,-1,15,17,19,21,23,25,27,-1,-1,-1,-1,-1,-1,-1,-1,-1,-1,-1,-1,-1,-1],"loss_changes":[6.555072E1,2.3449577E1,6.9813538E0,1.1690903E-1,7.9745274E0,2.9896698E0,3.324028E0,0E0,2.0437622E-1,6.346345E0,1.9274591E0,3.700706E0,6.123636E-1,6.9287205E-1,2.6588707E0,0E0,0E0,0E0,0E0,0E0,0E0,0E0,0E0,0E0,0E0,0E0,0E0,0E0,0E0],"parents":[2147483647,0,0,1,1,2,2,3,3,4,4,5,5,6,6,8,8,9,9,10,10,11,11,12,12,13,13,14,14],"right_children":[2,4,6,8,10,12,14,-1,16,18,20,22,24,26,28,-1,-1,-1,-1,-1,-1,-1,-1,-1,-1,-1,-1,-1,-1],"split_conditions":[1E0,1E0,1.72E2,1E0,1E0,1E0,1.14E2,-5.1968057E-2,1E0,1.66E2,1E0,5.6E1,2.99E2,1E0,1E0,-3.7573945E-2,-4.9771003E-2,-4.171122E-2,5.822896E-2,-3.7967186E-2,4.1729044E-2,-3.008989E-2,3.686498E-2,-4.997961E-2,2.5408808E-3,1.7883714E-2,-4.6511374E-2,7.294311E-2,4.1115258E-2],"split_indices":[20,21,3,0,23,24,6,0,8,3,11,2,6,27,23,0,0,0,0,0,0,0,0,0,0,0,0,0,0],"split_type":[0,0,0,0,0,0,0,0,0,0,0,0,0,0,0,0,0,0,0,0,0,0,0,0,0,0,0,0,0],"sum_hessian":[4.71401E2,2.7247794E2,1.9892308E2,2.0286607E2,6.961186E1,6.907986E1,1.2984322E2,9.861742E1,1.0424865E2,4.6072582E1,2.353928E1,6.0145943E1,8.933916E0,4.992013E0,1.24851204E2,5.507092E1,4.9177734E1,6.8000126E0,3.9272568E1,2.0859493E1,2.6797864E0,9.02681E0,5.1119133E1,5.768843E0,3.1650732E0,2.3108435E0,2.6811695E0,7.748014E1,4.7371067E1],"tree_param":{"num_deleted":"0","num_feature":"31","num_nodes":"29","size_leaf_vector":"1"}},{"base_weights":[-1.3351731E-2,5.437019E-1,-1.3703607E-1,6.0303986E-2,2.7421188E-1,-6.509657E-2,-3.904124E-1,4.1495302E-1,-1.8391395E-1,8.808818E-2,-1.760403E-1,-2.9715687E-1,-5.0859946E-1,-4.437902E-3,4.7807466E-2,-7.225191E-2,2.8142437E-2,2.0721814E-2,-3.3022128E-3,-1.1489956E-2,-3.7860077E-2,-2.2913704E-2,-6.1440784E-2,-5.5025764E-2,-3.7277997E-3],"categories":[],"categories_nodes":[],"categories_segments":[],"categories_sizes":[],"default_left":[0,0,0,0,0,0,0,0,0,0,0,0,0,0,0,0,0,0,0,0,0,0,0,0,0],"id":36,"left_children":[1,3,5,-1,7,9,11,13,15,17,19,21,23,-1,-1,-1,-1,-1,-1,-1,-1,-1,-1,-1,-1],"loss_changes":[8.407096E1,3.3799515E0,1.8173574E1,0E0,2.774138E0,1.3251688E1,2.280098E0,9.581604E-1,2.8415473E0,4.736372E0,5.5547295E0,2.5718384E0,1.8621082E0,0E0,0E0,0E0,0E0,0E0,0E0,0E0,0E0,0E0,0E0,0E0,0E0],"parents":[2147483647,0,0,1,1,2,2,4,4,5,5,6,6,7,7,8,8,9,9,10,10,11,11,12,12],"right_children":[2,4,6,-1,8,10,12,14,16,18,20,22,24,-1,-1,-1,-1,-1,-1,-1,-1,-1,-1,-1,-1],"split_conditions":[1E0,1E0,1E0,6.0303986E-2,1E0,1E0,1E0,1.72E2,1E0,1E0,1E0,1E0,1E0,-4.437902E-3,4.7807466E-2,-7.225191E-2,2.8142437E-2,2.0721814E-2,-3.3022128E-3,-1.1489956E-2,-3.7860077E-2,-2.2913704E-2,-6.1440784E-2,-5.5025764E-2,-3.7277997E-3],"split_indices":[18,20,21,0,29,28,20,6,27,0,25,30,12,0,0,0,0,0,0,0,0,0,0,0,0],"split_type":[0,0,0,0,0,0,0,0,0,0,0,0,0,0,0,0,0,0,0,0,0,0,0,0,0],"sum_hessian":[1.2181279E3,2.2070656E2,9.974214E2,1.7986504E2,4.0841522E1,7.778332E2,2.195882E2,3.1315351E1,9.526172E0,3.2680524E2,4.5102795E2,1.2470442E2,9.488377E1,3.8193207E0,2.749603E1,4.15931E0,5.366862E0,1.6439116E2,1.6241406E2,3.476582E2,1.03369736E2,1.0410596E2,2.0598463E1,8.702455E1,7.859225E0],"tree_param":{"num_deleted":"0","num_feature":"31","num_nodes":"25","size_leaf_vector":"1"}},{"base_weights":[7.7768797E-3,-3.0590793E-1,4.100122E-1,-4.2400143E-1,1.2833151E-1,2.9456532E-1,5.9681934E-1,-5.722056E-2,-3.505842E-1,1.0365227E-2,3.8836458E-1,8.36902E-2,4.1865748E-1,6.0838795E-1,3.86351E-1,-2.9848306E-2,-5.062857E-2,-2.5543867E-2,1.0368249E-2,4.6703164E-2,-4.563607E-2,-2.2702997E-3,4.616039E-2,7.413341E-3,4.5160152E-2,4.4801693E-2,6.2147517E-2,5.83823E-2,-2.7692306E-3],"categories":[],"categories_nodes":[],"categories_segments":[],"categories_sizes":[],"default_left":[0,0,0,0,0,0,0,0,0,0,0,0,0,0,0,0,0,0,0,0,0,0,0,0,0,0,0,0,0],"id":37,"left_children":[1,3,5,7,9,11,13,-1,15,17,19,21,23,25,27,-1,-1,-1,-1,-1,-1,-1,-1,-1,-1,-1,-1,-1,-1],"loss_changes":[1.5192393E2,3.4746666E1,1.120179E1,5.589058E0,4.456517E0,8.548925E0,2.5320435E-1,0E0,2.7564087E0,2.5331702E0,3.2269297E0,4.946882E0,2.3075752E0,1.16867065E-1,1.0944506E0,0E0,0E0,0E0,0E0,0E0,0E0,0E0,0E0,0E0,0E0,0E0,0E0,0E0,0E0],"parents":[2147483647,0,0,1,1,2,2,3,3,4,4,5,5,6,6,8,8,9,9,10,10,11,11,12,12,13,13,14,14],"right_children":[2,4,6,8,10,12,14,-1,16,18,20,22,24,26,28,-1,-1,-1,-1,-1,-1,-1,-1,-1,-1,-1,-1,-1,-1],"split_conditions":[1E0,1E0,1E0,1E0,1E0,1E0,1E0,-5.722056E-2,1E0,5E0,1E0,1E0,1E0,5.28E1,1E0,-2.9848306E-2,-5.062857E-2,-2.5543867E-2,1.0368249E-2,4.6703164E-2,-4.563607E-2,-2.2702997E-3,4.616039E-2,7.413341E-3,4.5160152E-2,4.4801693E-2,6.2147517E-2,5.83823E-2,-2.7692306E-3],"split_indices":[23,22,22,18,30,28,5,0,15,19,26,14,4,2,9,0,0,0,0,0,0,0,0,0,0,0,0,0,0],"split_type":[0,0,0,0,0,0,0,0,0,0,0,0,0,0,0,0,0,0,0,0,0,0,0,0,0,0,0,0,0],"sum_hessian":[1.2020782E3,6.7551483E2,5.265635E2,5.3110254E2,1.4441231E2,3.2703354E2,1.9952992E2,1.7368938E2,3.5741315E2,1.00059364E2,4.4352943E1,1.2177333E2,2.0526022E2,1.8734184E2,1.2188079E1,2.6998663E2,8.742652E1,2.5548885E1,7.451048E1,4.098339E1,3.369554E0,9.575545E1,2.6017889E1,1.8198025E1,1.870622E2,1.6793003E1,1.7054883E2,7.9746375E0,4.2134414E0],"tree_param":{"num_deleted":"0","num_feature":"31","num_nodes":"29","size_leaf_vector":"1"}},{"base_weights":[3.742198E-2,-2.696549E-1,4.39419E-1,-4.7580993E-1,2.8467458E-1,5.822446E-1,2.2896065E-1,-4.9669158E-2,-3.5494754E-1,4.9605235E-1,-2.0749666E-1,2.900875E-1,7.424389E-1,-5.7832275E-2,4.2927644E-1,-1.5643429E-2,-4.9786534E-2,6.2323667E-2,-8.056781E-3,2.6689663E-3,-4.128651E-2,6.4858355E-2,6.3971593E-3,8.337407E-2,3.0871361E-2,3.3100422E-2,-2.2617638E-2,5.414475E-2,-2.0600865E-2],"categories":[],"categories_nodes":[],"categories_segments":[],"categories_sizes":[],"default_left":[0,0,0,0,0,0,0,0,0,0,0,0,0,0,0,0,0,0,0,0,0,0,0,0,0,0,0,0,0],"id":38,"left_children":[1,3,5,7,9,11,13,-1,15,17,19,21,23,25,27,-1,-1,-1,-1,-1,-1,-1,-1,-1,-1,-1,-1,-1,-1],"loss_changes":[5.780671E1,3.048311E1,5.9614983E0,3.1317902E-1,7.6573396E0,5.4074936E0,4.828779E0,0E0,8.3215046E-1,3.7972193E0,1.094194E0,3.5404544E0,2.7899704E0,2.3835206E0,3.6283884E0,0E0,0E0,0E0,0E0,0E0,0E0,0E0,0E0,0E0,0E0,0E0,0E0,0E0,0E0],"parents":[2147483647,0,0,1,1,2,2,3,3,4,4,5,5,6,6,8,8,9,9,10,10,11,11,12,12,13,13,14,14],"right_children":[2,4,6,8,10,12,14,-1,16,18,20,22,24,26,28,-1,-1,-1,-1,-1,-1,-1,-1,-1,-1,-1,-1,-1,-1],"split_conditions":[1E0,1E0,1E0,1E0,1E0,6.52E1,6E0,-4.9669158E-2,1E0,7E0,6.9E1,1E0,1E0,1E0,8E0,-1.5643429E-2,-4.9786534E-2,6.2323667E-2,-8.056781E-3,2.6689663E-3,-4.128651E-2,6.4858355E-2,6.3971593E-3,8.337407E-2,3.0871361E-2,3.3100422E-2,-2.2617638E-2,5.414475E-2,-2.0600865E-2],"split_indices":[20,21,23,16,23,2,19,0,28,19,2,27,30,28,19,0,0,0,0,0,0,0,0,0,0,0,0,0,0],"split_type":[0,0,0,0,0,0,0,0,0,0,0,0,0,0,0,0,0,0,0,0,0,0,0,0,0,0,0,0,0],"sum_hessian":[4.6632306E2,2.6456033E2,2.0176273E2,1.9294556E2,7.161478E1,1.19141754E2,8.2620964E1,1.6186948E2,3.1076078E1,5.009296E1,2.1521816E1,4.318792E1,7.5953835E1,3.426908E1,4.8351883E1,1.38847275E1,1.719135E1,4.0974438E1,9.11852E0,1.0461906E1,1.1059911E1,1.5981556E1,2.7206364E1,6.1983635E1,1.39702015E1,1.0061976E1,2.4207108E1,4.1221237E1,7.1306458E0],"tree_param":{"num_deleted":"0","num_feature":"31","num_nodes":"29","size_leaf_vector":"1"}},{"base_weights":[-6.5901447E-3,2.2593151E-1,-3.9045793E-1,5.5619824E-1,1.02287844E-1,-2.691593E-1,-5.1863825E-1,5.903334E-2,3.7355074E-1,2.0069778E-1,-1.9631091E-1,-4.2044163E-1,-1.3099024E-1,3.539228E-2,-5.264123E-1,5.3303516E-3,5.2963056E-2,2.5366504E-2,-6.746554E-3,-3.1195356E-2,1.3490423E-2,-4.540292E-2,2.2836322E-2,-1.9500405E-3,-4.818245E-2,-4.1755266E-2,-5.8435358E-2],"categories":[],"categories_nodes":[],"categories_segments":[],"categories_sizes":[],"default_left":[0,0,0,0,0,0,0,0,0,0,0,0,0,0,0,0,0,0,0,0,0,0,0,0,0,0,0],"id":39,"left_children":[1,3,5,7,9,11,13,-1,15,17,19,21,23,-1,25,-1,-1,-1,-1,-1,-1,-1,-1,-1,-1,-1,-1],"loss_changes":[1.06899414E2,3.040128E1,6.884804E0,1.0448112E0,1.6022764E1,4.8403587E0,1.669033E0,0E0,1.7052212E0,5.83494E0,5.2257104E0,2.5300617E0,4.835284E0,0E0,1.1250648E0,0E0,0E0,0E0,0E0,0E0,0E0,0E0,0E0,0E0,0E0,0E0,0E0],"parents":[2147483647,0,0,1,1,2,2,3,3,4,4,5,5,6,6,8,8,9,9,10,10,11,11,12,12,14,14],"right_children":[2,4,6,8,10,12,14,-1,16,18,20,22,24,-1,26,-1,-1,-1,-1,-1,-1,-1,-1,-1,-1,-1,-1],"split_conditions":[1E0,1E0,1E0,1E0,1E0,6E0,3.7E1,5.903334E-2,1E0,1E0,1E0,1E0,1E0,3.539228E-2,1E0,5.3303516E-3,5.2963056E-2,2.5366504E-2,-6.746554E-3,-3.1195356E-2,1.3490423E-2,-4.540292E-2,2.2836322E-2,-1.9500405E-3,-4.818245E-2,-4.1755266E-2,-5.8435358E-2],"split_indices":[23,18,0,20,20,19,6,0,27,21,15,5,21,0,28,0,0,0,0,0,0,0,0,0,0,0,0],"split_type":[0,0,0,0,0,0,0,0,0,0,0,0,0,0,0,0,0,0,0,0,0,0,0,0,0,0,0],"sum_hessian":[1.1956625E3,7.448769E2,4.507856E2,2.0194904E2,5.4292786E2,2.3320279E2,2.1758284E2,1.6826897E2,3.3680058E1,4.0859427E2,1.3433357E2,1.10343704E2,1.2285909E2,1.528233E0,2.160546E2,1.1475646E1,2.220441E1,3.412459E2,6.734837E1,9.96124E1,3.472117E1,1.0519798E2,5.1457214E0,9.403255E1,2.8826542E1,7.790106E1,1.3815353E2],"tree_param":{"num_deleted":"0","num_feature":"31","num_nodes":"27","size_leaf_vector":"1"}},{"base_weights":[6.0967114E-3,-2.879918E-1,3.8042563E-1,-4.1671613E-1,1.6960602E-1,2.5785345E-1,5.903594E-1,-4.9460465E-1,-5.8961365E-2,3.6157172E-2,4.7854036E-1,4.2164263E-1,1.02640815E-1,6.0219496E-1,3.9445E-1,-5.3917747E-2,-4.1900646E-2,-3.12773E-2,1.5659673E-2,2.2830404E-2,-1.4853962E-2,5.6219596E-2,-3.262476E-2,5.964241E-2,3.2024715E-2,6.3896924E-4,4.1539904E-2,6.0689863E-2,2.2738298E-2,5.8437016E-2,-8.687326E-3],"categories":[],"categories_nodes":[],"categories_segments":[],"categories_sizes":[],"default_left":[0,0,0,0,0,0,0,0,0,0,0,0,0,0,0,0,0,0,0,0,0,0,0,0,0,0,0,0,0,0,0],"id":40,"left_children":[1,3,5,7,9,11,13,15,17,19,21,23,25,27,29,-1,-1,-1,-1,-1,-1,-1,-1,-1,-1,-1,-1,-1,-1,-1,-1],"loss_changes":[1.321643E2,3.967481E1,1.3439705E1,1.4600746E1,6.0975704E0,8.480032E0,2.121582E-1,1.2264786E0,5.246814E0,3.7482266E0,3.190217E0,2.6942654E0,5.219197E0,1.8109131E-1,1.3257754E0,0E0,0E0,0E0,0E0,0E0,0E0,0E0,0E0,0E0,0E0,0E0,0E0,0E0,0E0,0E0,0E0],"parents":[2147483647,0,0,1,1,2,2,3,3,4,4,5,5,6,6,7,7,8,8,9,9,10,10,11,11,12,12,13,13,14,14],"right_children":[2,4,6,8,10,12,14,16,18,20,22,24,26,28,30,-1,-1,-1,-1,-1,-1,-1,-1,-1,-1,-1,-1,-1,-1,-1,-1],"split_conditions":[1E0,1E0,1E0,1E0,1E0,6E0,1E0,1E0,1E0,1E0,1E0,1E0,1E0,9.41E1,1E0,-5.3917747E-2,-4.1900646E-2,-3.12773E-2,1.5659673E-2,2.2830404E-2,-1.4853962E-2,5.6219596E-2,-3.262476E-2,5.964241E-2,3.2024715E-2,6.3896924E-4,4.1539904E-2,6.0689863E-2,2.2738298E-2,5.8437016E-2,-8.687326E-3],"split_indices":[23,22,22,25,30,19,5,9,28,0,26,27,25,2,9,0,0,0,0,0,0,0,0,0,0,0,0,0,0,0,0],"split_type":[0,0,0,0,0,0,0,0,0,0,0,0,0,0,0,0,0,0,0,0,0,0,0,0,0,0,0,0,0,0,0],"sum_hessian":[1.1985615E3,6.713508E2,5.272107E2,5.2402856E2,1.4732228E2,3.3427103E2,1.9293968E2,4.3002356E2,9.4005035E1,1.0366126E2,4.366101E1,1.618068E2,1.7246425E2,1.7999188E2,1.2947795E1,2.6666522E2,1.6335832E2,4.2964703E1,5.104033E1,5.069024E1,5.2971024E1,3.9822956E1,3.838056E0,5.7613243E1,1.0419356E2,1.3265897E2,3.9805275E1,1.7714955E2,2.8423333E0,9.130858E0,3.816937E0],"tree_param":{"num_deleted":"0","num_feature":"31","num_nodes":"31","size_leaf_vector":"1"}},{"base_weights":[1.126851E-2,-2.6334238E-1,3.46183E-1,-1.5981357E-1,-4.4547468E-1,4.4581002E-1,-8.693361E-2,-2.9017708E-1,-4.128069E-2,-4.5527261E-1,6.6798637E-3,5.044237E-1,-2.8743025E-2,2.1587539E-1,-3.3813033E-1,-3.5279773E-2,1.2989841E-2,-4.1838594E-2,1.737337E-3,-4.831784E-2,-2.3025196E-2,5.8465358E-2,1.2243266E-2,-1.7828992E-2,4.7432076E-2,5.1011313E-2,-1.8425915E-2,-4.134538E-2,1.9659972E-2],"categories":[],"categories_nodes":[],"categories_segments":[],"categories_sizes":[],"default_left":[0,0,0,0,0,0,0,0,0,0,0,0,0,0,0,0,0,0,0,0,0,0,0,0,0,0,0,0,0],"id":41,"left_children":[1,3,5,7,9,11,13,15,17,19,-1,21,23,25,27,-1,-1,-1,-1,-1,-1,-1,-1,-1,-1,-1,-1,-1,-1],"loss_changes":[4.1940926E1,4.6539745E0,8.903444E0,2.4809966E0,4.8344612E-1,4.6647415E0,3.0589354E0,2.0625668E0,1.9021069E0,4.4569206E-1,0E0,4.4904747E0,1.5384445E0,2.2614229E0,9.611869E-1,0E0,0E0,0E0,0E0,0E0,0E0,0E0,0E0,0E0,0E0,0E0,0E0,0E0,0E0],"parents":[2147483647,0,0,1,1,2,2,3,3,4,4,5,5,6,6,7,7,8,8,9,9,11,11,12,12,13,13,14,14],"right_children":[2,4,6,8,10,12,14,16,18,20,-1,22,24,26,28,-1,-1,-1,-1,-1,-1,-1,-1,-1,-1,-1,-1,-1,-1],"split_conditions":[1E0,1E0,1E0,1E0,1.98E2,1E0,1E0,1E0,1.8E1,1E0,6.6798637E-3,1E0,1.82E2,6E0,1.89E2,-3.5279773E-2,1.2989841E-2,-4.1838594E-2,1.737337E-3,-4.831784E-2,-2.3025196E-2,5.8465358E-2,1.2243266E-2,-1.7828992E-2,4.7432076E-2,5.1011313E-2,-1.8425915E-2,-4.134538E-2,1.9659972E-2],"split_indices":[20,23,22,0,3,30,23,10,1,11,0,25,3,19,3,0,0,0,0,0,0,0,0,0,0,0,0,0,0],"split_type":[0,0,0,0,0,0,0,0,0,0,0,0,0,0,0,0,0,0,0,0,0,0,0,0,0,0,0,0,0],"sum_hessian":[4.540313E2,2.4959296E2,2.0443837E2,1.6033293E2,8.9260025E1,1.6618304E2,3.825532E1,7.5666336E1,8.466659E1,8.769402E1,1.5659974E0,1.478577E2,1.8325354E1,1.7409445E1,2.0845875E1,6.598945E1,9.6768875E0,1.0570762E1,7.4095825E1,7.6997925E1,1.0696098E1,1.2175489E2,2.6102802E1,1.4623719E1,3.701634E0,9.873871E0,7.5355744E0,1.8470825E1,2.375049E0],"tree_param":{"num_deleted":"0","num_feature":"31","num_nodes":"29","size_leaf_vector":"1"}},{"base_weights":[-1.2036105E-2,5.391097E-1,-1.19733796E-1,5.7980467E-2,3.521294E-1,-7.426367E-3,-4.0057084E-1,1.8919156E-1,6.2871814E-2,7.614368E-2,-2.419683E-1,-4.3088418E-1,-2.3793888E-1,3.36609E-2,-2.1912394E-2,2.0904882E-2,-6.732141E-3,-1.1966057E-2,-4.5908395E-2,-2.6054874E-2,-4.494194E-2,4.324746E-2,-2.9535208E-2],"categories":[],"categories_nodes":[],"categories_segments":[],"categories_sizes":[],"default_left":[0,0,0,0,0,0,0,0,0,0,0,0,0,0,0,0,0,0,0,0,0,0,0],"id":42,"left_children":[1,3,5,-1,7,9,11,13,-1,15,17,19,21,-1,-1,-1,-1,-1,-1,-1,-1,-1,-1],"loss_changes":[6.817522E1,1.224472E0,3.0298199E1,0E0,1.5082245E0,1.3489869E1,1.2503662E0,1.5274998E0,0E0,9.690676E0,4.746093E0,6.0930634E-1,1.8731878E0,0E0,0E0,0E0,0E0,0E0,0E0,0E0,0E0,0E0,0E0],"parents":[2147483647,0,0,1,1,2,2,4,4,5,5,6,6,7,7,9,9,10,10,11,11,12,12],"right_children":[2,4,6,-1,8,10,12,14,-1,16,18,20,22,-1,-1,-1,-1,-1,-1,-1,-1,-1,-1],"split_conditions":[1E0,1E0,1E0,5.7980467E-2,1E0,1E0,1E0,7.74E1,6.2871814E-2,1E0,1E0,5.28E1,1.62E2,3.36609E-2,-2.1912394E-2,2.0904882E-2,-6.732141E-3,-1.1966057E-2,-4.5908395E-2,-2.6054874E-2,-4.494194E-2,4.324746E-2,-2.9535208E-2],"split_indices":[18,20,22,0,15,20,24,2,0,0,21,2,3,0,0,0,0,0,0,0,0,0,0],"split_type":[0,0,0,0,0,0,0,0,0,0,0,0,0,0,0,0,0,0,0,0,0,0,0],"sum_hessian":[1.1464722E3,1.8675299E2,9.5971924E2,1.5164717E2,3.5105824E1,6.8629474E2,2.734245E2,2.3151403E1,1.1954422E1,5.0649863E2,1.7979608E2,2.2907689E2,4.434761E1,1.713914E1,6.012264E0,2.6268854E2,2.438101E2,1.1600061E2,6.3795467E1,2.3958542E1,2.0511835E2,2.982958E0,4.1364655E1],"tree_param":{"num_deleted":"0","num_feature":"31","num_nodes":"23","size_leaf_vector":"1"}},{"base_weights":[-1.181913E-3,-2.8099856E-1,3.5306895E-1,-4.046091E-1,1.3987596E-1,2.3230761E-1,5.676797E-1,-4.366009E-1,-1.7124549E-1,3.5728052E-1,4.7163792E-2,4.5755196E-2,3.4364873E-1,5.799538E-1,3.4307656E-1,-3.7736665E-2,-5.0708767E-2,-4.614174E-2,6.69799E-3,4.6606228E-2,-4.2293344E-2,-6.7068078E-3,3.2943603E-2,-1.626453E-2,2.420543E-2,-4.148006E-3,3.671051E-2,5.848686E-2,2.0249475E-2,5.577193E-2,-8.619337E-3],"categories":[],"categories_nodes":[],"categories_segments":[],"categories_sizes":[],"default_left":[0,0,0,0,0,0,0,0,0,0,0,0,0,0,0,0,0,0,0,0,0,0,0,0,0,0,0,0,0,0,0],"id":43,"left_children":[1,3,5,7,9,11,13,15,17,19,21,23,25,27,29,-1,-1,-1,-1,-1,-1,-1,-1,-1,-1,-1,-1,-1,-1,-1,-1],"loss_changes":[1.1368793E2,3.339247E1,1.298555E1,3.624939E0,2.9302263E0,6.7468815E0,3.0155182E-1,1.6255722E0,4.2746344E0,3.8941507E0,3.3643458E0,5.064724E0,1.855732E0,1.98246E-1,1.1404809E0,0E0,0E0,0E0,0E0,0E0,0E0,0E0,0E0,0E0,0E0,0E0,0E0,0E0,0E0,0E0,0E0],"parents":[2147483647,0,0,1,1,2,2,3,3,4,4,5,5,6,6,7,7,8,8,9,9,10,10,11,11,12,12,13,13,14,14],"right_children":[2,4,6,8,10,12,14,16,18,20,22,24,26,28,30,-1,-1,-1,-1,-1,-1,-1,-1,-1,-1,-1,-1,-1,-1,-1,-1],"split_conditions":[1E0,1E0,1E0,1E0,1.69E2,1E0,1E0,1E0,1E0,1E0,1E0,1E0,4.77E1,9.41E1,1E0,-3.7736665E-2,-5.0708767E-2,-4.614174E-2,6.69799E-3,4.6606228E-2,-4.2293344E-2,-6.7068078E-3,3.2943603E-2,-1.626453E-2,2.420543E-2,-4.148006E-3,3.671051E-2,5.848686E-2,2.0249475E-2,5.577193E-2,-8.619337E-3],"split_indices":[23,22,22,24,3,28,5,8,28,10,30,0,2,2,9,0,0,0,0,0,0,0,0,0,0,0,0,0,0,0,0],"split_type":[0,0,0,0,0,0,0,0,0,0,0,0,0,0,0,0,0,0,0,0,0,0,0,0,0,0,0,0,0,0,0],"sum_hessian":[1.1449105E3,6.397722E2,5.051383E2,4.945592E2,1.4521304E2,3.245799E2,1.8055843E2,4.3416827E2,6.0390938E1,4.2559612E1,1.0265343E2,1.21842804E2,2.0273708E2,1.6970241E2,1.0856013E1,2.3936736E2,1.948009E2,2.6804571E1,3.3586365E1,3.7705193E1,4.8544197E0,7.362198E1,2.903145E1,5.9182877E1,6.265993E1,1.1594761E1,1.9114232E2,1.6697871E2,2.723693E0,7.0377727E0,3.8182411E0],"tree_param":{"num_deleted":"0","num_feature":"31","num_nodes":"31","size_leaf_vector":"1"}},{"base_weights":[1.5387523E-2,-2.6223394E-1,3.2647374E-1,-4.6164292E-1,2.5081202E-1,4.2081308E-1,-1.0960229E-1,-4.805899E-1,-3.9207476E-1,4.41502E-1,-2.1654437E-1,4.9780878E-1,-1.4024343E-1,1.900185E-1,-2.764698E-1,-4.925441E-2,-3.551817E-2,-4.9729764E-2,-2.7321517E-2,5.0603744E-2,-4.4012852E-2,-3.3563066E-2,4.0145162E-2,2.6349402E-3,5.719238E-2,1.7460635E-2,-4.6591945E-2,-3.0305466E-2,4.469224E-2,-3.295631E-2,1.6678406E-2],"categories":[],"categories_nodes":[],"categories_segments":[],"categories_sizes":[],"default_left":[0,0,0,0,0,0,0,0,0,0,0,0,0,0,0,0,0,0,0,0,0,0,0,0,0,0,0,0,0,0,0],"id":44,"left_children":[1,3,5,7,9,11,13,15,17,19,21,23,25,27,29,-1,-1,-1,-1,-1,-1,-1,-1,-1,-1,-1,-1,-1,-1,-1,-1],"loss_changes":[3.9274662E1,2.4703394E1,8.867624E0,4.0157318E-2,6.1482067E0,7.6943855E0,1.9990127E0,2.274704E-2,3.962984E-1,2.9858131E0,1.6325036E0,5.415657E0,2.3452978E0,1.9745984E0,6.530285E-1,0E0,0E0,0E0,0E0,0E0,0E0,0E0,0E0,0E0,0E0,0E0,0E0,0E0,0E0,0E0,0E0],"parents":[2147483647,0,0,1,1,2,2,3,3,4,4,5,5,6,6,7,7,8,8,9,9,10,10,11,11,12,12,13,13,14,14],"right_children":[2,4,6,8,10,12,14,16,18,20,22,24,26,28,30,-1,-1,-1,-1,-1,-1,-1,-1,-1,-1,-1,-1,-1,-1,-1,-1],"split_conditions":[1E0,1E0,1E0,1E0,1E0,1E0,1E0,1E0,6.87E1,1E0,1E0,1E0,1E0,1.7E2,1.92E2,-4.925441E-2,-3.551817E-2,-4.9729764E-2,-2.7321517E-2,5.0603744E-2,-4.4012852E-2,-3.3563066E-2,4.0145162E-2,2.6349402E-3,5.719238E-2,1.7460635E-2,-4.6591945E-2,-3.0305466E-2,4.469224E-2,-3.295631E-2,1.6678406E-2],"split_indices":[20,21,22,22,23,24,28,10,2,12,11,18,28,3,3,0,0,0,0,0,0,0,0,0,0,0,0,0,0,0,0],"split_type":[0,0,0,0,0,0,0,0,0,0,0,0,0,0,0,0,0,0,0,0,0,0,0,0,0,0,0,0,0,0,0],"sum_hessian":[4.5276495E2,2.3933405E2,2.1343091E2,1.7241899E2,6.691505E1,1.75499E2,3.793192E1,1.3086855E2,4.1550446E1,4.756356E1,1.9351484E1,1.5442012E2,2.1078869E1,1.3518997E1,2.441292E1,1.1680675E2,1.4061803E1,2.0350681E1,2.1199762E1,4.4716343E1,2.847218E0,1.6608059E1,2.7434258E0,2.1161764E1,1.3325836E2,1.0953425E1,1.01254425E1,4.569382E0,8.949615E0,2.2030573E1,2.382347E0],"tree_param":{"num_deleted":"0","num_feature":"31","num_nodes":"31","size_leaf_vector":"1"}},{"base_weights":[3.3883103E-3,2.1450756E-1,-3.4314215E-1,5.1378196E-1,1.0739745E-1,-2.4100472E-1,-5.4594433E-1,5.7745516E-2,2.5354847E-1,1.946277E-1,-1.6919082E-1,-5.8281016E-2,-4.2959866E-1,-3.1254527E-1,-5.651906E-1,3.8535077E-2,-2.3567418E-3,3.0682057E-2,-1.0121028E-2,-2.7374167E-2,1.8565565E-2,-2.4759283E-2,1.1531354E-2,-4.9762737E-2,4.3837234E-5,-5.313463E-2,3.3114143E-2,-3.0189741E-2,-5.7241578E-2],"categories":[],"categories_nodes":[],"categories_segments":[],"categories_sizes":[],"default_left":[0,0,0,0,0,0,0,0,0,0,0,0,0,0,0,0,0,0,0,0,0,0,0,0,0,0,0,0,0],"id":45,"left_children":[1,3,5,7,9,11,13,-1,15,17,19,21,23,25,27,-1,-1,-1,-1,-1,-1,-1,-1,-1,-1,-1,-1,-1,-1],"loss_changes":[8.114809E1,2.203925E1,8.566769E0,2.859417E0,1.2310048E1,9.660772E0,4.5163345E-1,0E0,1.3766584E0,1.2886445E1,4.5969954E0,4.7580457E0,4.0419483E0,1.9916162E0,7.062912E-2,0E0,0E0,0E0,0E0,0E0,0E0,0E0,0E0,0E0,0E0,0E0,0E0,0E0,0E0],"parents":[2147483647,0,0,1,1,2,2,3,3,4,4,5,5,6,6,8,8,9,9,10,10,11,11,12,12,13,13,14,14],"right_children":[2,4,6,8,10,12,14,-1,16,18,20,22,24,26,28,-1,-1,-1,-1,-1,-1,-1,-1,-1,-1,-1,-1,-1,-1],"split_conditions":[1E0,1E0,1E0,1E0,1E0,1E0,5.28E1,5.7745516E-2,7.74E1,1E0,1E0,6E0,1E0,5.11E1,3E0,3.8535077E-2,-2.3567418E-3,3.0682057E-2,-1.0121028E-2,-2.7374167E-2,1.8565565E-2,-2.4759283E-2,1.1531354E-2,-4.9762737E-2,4.3837234E-5,-5.313463E-2,3.3114143E-2,-3.0189741E-2,-5.7241578E-2],"split_indices":[23,18,22,20,22,0,2,0,2,20,24,19,30,2,19,0,0,0,0,0,0,0,0,0,0,0,0,0,0],"split_type":[0,0,0,0,0,0,0,0,0,0,0,0,0,0,0,0,0,0,0,0,0,0,0,0,0,0,0,0,0],"sum_hessian":[1.1071918E3,6.8825946E2,4.189323E2,1.8040274E2,5.0785675E2,2.8006918E2,1.3886313E2,1.4396002E2,3.644272E1,3.863167E2,1.2154002E2,1.4291328E2,1.371559E2,1.1891751E1,1.26971375E2,2.4431835E1,1.2010883E1,2.800675E2,1.0624922E2,9.4056175E1,2.748385E1,6.815799E1,7.4755295E1,1.1828665E2,1.8869253E1,9.005232E0,2.886519E0,4.533907E0,1.2243746E2],"tree_param":{"num_deleted":"0","num_feature":"31","num_nodes":"29","size_leaf_vector":"1"}},{"base_weights":[-3.5865942E-3,-1.4181733E-1,3.4480637E-1,-5.528767E-1,-5.700945E-2,2.799851E-1,4.946332E-1,-2.978726E-1,-5.5995535E-2,-1.2549083E-1,1.566876E-1,3.971004E-1,1.9731258E-1,5.275185E-1,1.6191755E-1,-4.457554E-2,1.8753024E-2,-2.5218507E-2,-2.7835593E-4,2.1901077E-2,-3.48618E-2,4.487429E-2,1.4119643E-2,3.0269666E-2,9.234873E-3,5.5630084E-2,2.5043545E-2,3.5206754E-2,-3.8762443E-2],"categories":[],"categories_nodes":[],"categories_segments":[],"categories_sizes":[],"default_left":[0,0,0,0,0,0,0,0,0,0,0,0,0,0,0,0,0,0,0,0,0,0,0,0,0,0,0,0,0],"id":46,"left_children":[1,3,5,7,9,11,13,15,-1,17,19,21,23,25,27,-1,-1,-1,-1,-1,-1,-1,-1,-1,-1,-1,-1,-1,-1],"loss_changes":[5.4143547E1,2.8027967E1,2.9631767E0,8.148193E-2,9.800459E0,2.1023254E0,9.555588E-1,5.0363165E-1,0E0,7.876667E0,5.1984086E0,1.1552553E0,1.4544482E0,5.476551E-1,1.1814893E0,0E0,0E0,0E0,0E0,0E0,0E0,0E0,0E0,0E0,0E0,0E0,0E0,0E0,0E0],"parents":[2147483647,0,0,1,1,2,2,3,3,4,4,5,5,6,6,7,7,9,9,10,10,11,11,12,12,13,13,14,14],"right_children":[2,4,6,8,10,12,14,16,-1,18,20,22,24,26,28,-1,-1,-1,-1,-1,-1,-1,-1,-1,-1,-1,-1,-1,-1],"split_conditions":[1E0,1E0,1E0,1.57E2,1E0,1.73E2,1E0,1E0,-5.5995535E-2,1E0,1E0,1E0,1E0,1.91E2,1E0,-4.457554E-2,1.8753024E-2,-2.5218507E-2,-2.7835593E-4,2.1901077E-2,-3.48618E-2,4.487429E-2,1.4119643E-2,3.0269666E-2,9.234873E-3,5.5630084E-2,2.5043545E-2,3.5206754E-2,-3.8762443E-2],"split_indices":[22,18,30,3,25,3,26,30,0,0,10,13,0,3,14,0,0,0,0,0,0,0,0,0,0,0,0,0,0],"split_type":[0,0,0,0,0,0,0,0,0,0,0,0,0,0,0,0,0,0,0,0,0,0,0,0,0,0,0,0,0],"sum_hessian":[1.12226E3,8.038944E2,3.183656E2,1.3654562E2,6.6734875E2,2.2422522E2,9.414039E1,4.8515353E0,1.3169409E2,5.057037E2,1.6164508E2,9.121094E1,1.3301428E2,8.513976E1,9.000627E0,3.7812266E0,1.0703088E0,2.4829057E2,2.5741312E2,1.4440154E2,1.7243553E1,7.526798E1,1.5942951E1,6.543425E1,6.758003E1,7.621512E1,8.924644E0,6.953836E0,2.0467906E0],"tree_param":{"num_deleted":"0","num_feature":"31","num_nodes":"29","size_leaf_vector":"1"}},{"base_weights":[4.3911207E-2,-1.924139E-1,4.420509E-1,-4.6880892E-1,1.9798015E-1,6.5853935E-1,2.6620397E-1,-4.8791873E-1,-3.4814107E-1,3.3673388E-1,-9.174208E-2,-4.4815387E-3,7.3797894E-1,-3.1588957E-2,5.288245E-1,-5.1589202E-2,-3.8542815E-2,-1.6441863E-2,-4.8606914E-2,4.689419E-2,-6.8921815E-3,-2.7836656E-2,2.0789087E-2,-4.874645E-2,2.8749285E-2,4.114459E-2,9.266718E-2,-5.7092775E-2,3.2259766E-2,7.5796805E-2,1.9901184E-2],"categories":[],"categories_nodes":[],"categories_segments":[],"categories_sizes":[],"default_left":[0,0,0,0,0,0,0,0,0,0,0,0,0,0,0,0,0,0,0,0,0,0,0,0,0,0,0,0,0,0,0],"id":47,"left_children":[1,3,5,7,9,11,13,15,17,19,21,23,25,27,29,-1,-1,-1,-1,-1,-1,-1,-1,-1,-1,-1,-1,-1,-1,-1,-1],"loss_changes":[4.165999E1,3.0087025E1,6.1017723E0,2.0611191E-1,4.691196E0,3.8600807E0,7.263524E0,1.9756699E-1,5.734012E-1,4.2477617E0,2.201066E0,1.3851508E0,3.6480865E0,8.659475E0,3.5746336E0,0E0,0E0,0E0,0E0,0E0,0E0,0E0,0E0,0E0,0E0,0E0,0E0,0E0,0E0,0E0,0E0],"parents":[2147483647,0,0,1,1,2,2,3,3,4,4,5,5,6,6,7,7,8,8,9,9,10,10,11,11,12,12,13,13,14,14],"right_children":[2,4,6,8,10,12,14,16,18,20,22,24,26,28,30,-1,-1,-1,-1,-1,-1,-1,-1,-1,-1,-1,-1,-1,-1,-1,-1],"split_conditions":[1E0,1E0,1E0,1E0,1E0,5.47E1,1E0,1E0,1E0,1E0,1.8E2,1E0,1.73E2,1E0,1E0,-5.1589202E-2,-3.8542815E-2,-1.6441863E-2,-4.8606914E-2,4.689419E-2,-6.8921815E-3,-2.7836656E-2,2.0789087E-2,-4.874645E-2,2.8749285E-2,4.114459E-2,9.266718E-2,-5.7092775E-2,3.2259766E-2,7.5796805E-2,1.9901184E-2],"split_indices":[21,20,28,16,23,2,0,22,28,15,3,27,3,20,23,0,0,0,0,0,0,0,0,0,0,0,0,0,0,0,0],"split_type":[0,0,0,0,0,0,0,0,0,0,0,0,0,0,0,0,0,0,0,0,0,0,0,0,0,0,0,0,0,0,0],"sum_hessian":[4.4086157E2,2.7697394E2,1.6388762E2,1.620461E2,1.1492785E2,7.2225044E1,9.166258E1,1.3726442E2,2.4781677E1,7.760095E1,3.73269E1,7.828676E0,6.439636E1,4.3367096E1,4.8295483E1,1.0466428E2,3.2600132E1,1.1566702E1,1.3214975E1,5.8408817E1,1.9192135E1,2.3044655E1,1.4282244E1,2.6972876E0,5.1313887E0,2.4748896E1,3.964747E1,1.6947815E1,2.6419281E1,2.7730808E1,2.0564674E1],"tree_param":{"num_deleted":"0","num_feature":"31","num_nodes":"31","size_leaf_vector":"1"}},{"base_weights":[-1.2529662E-3,2.012404E-1,-3.339197E-1,4.979764E-1,1.05870575E-1,-2.4426123E-1,-5.227236E-1,5.293057E-2,3.6077726E-1,1.8499504E-1,-1.4052905E-1,-5.130054E-2,-3.699563E-1,-5.415704E-1,-2.3933557E-1,1.0095562E-2,5.1917624E-2,2.4973005E-2,-6.6677644E-3,6.70908E-3,-2.7111566E-2,9.510218E-3,-5.559514E-2,-4.1928757E-2,1.52470395E-2,-3.2030102E-2,-5.633424E-2,-4.9700476E-2,2.2186235E-2],"categories":[],"categories_nodes":[],"categories_segments":[],"categories_sizes":[],"default_left":[0,0,0,0,0,0,0,0,0,0,0,0,0,0,0,0,0,0,0,0,0,0,0,0,0,0,0,0,0],"id":48,"left_children":[1,3,5,7,9,11,13,-1,15,17,19,21,23,25,27,-1,-1,-1,-1,-1,-1,-1,-1,-1,-1,-1,-1,-1,-1],"loss_changes":[7.428498E1,1.9346758E1,6.9356384E0,5.245476E-1,1.0164846E1,6.8883495E0,5.832405E-1,0E0,1.3504E0,6.4368124E0,3.460746E0,8.438298E0,4.504223E0,4.1864014E-1,1.312283E0,0E0,0E0,0E0,0E0,0E0,0E0,0E0,0E0,0E0,0E0,0E0,0E0,0E0,0E0],"parents":[2147483647,0,0,1,1,2,2,3,3,4,4,5,5,6,6,8,8,9,9,10,10,11,11,12,12,13,13,14,14],"right_children":[2,4,6,8,10,12,14,-1,16,18,20,22,24,26,28,-1,-1,-1,-1,-1,-1,-1,-1,-1,-1,-1,-1,-1,-1],"split_conditions":[1E0,1E0,1E0,1E0,1E0,1E0,1E0,5.293057E-2,1E0,1E0,1E0,1E0,1E0,5.28E1,1E0,1.0095562E-2,5.1917624E-2,2.4973005E-2,-6.6677644E-3,6.70908E-3,-2.7111566E-2,9.510218E-3,-5.559514E-2,-4.1928757E-2,1.52470395E-2,-3.2030102E-2,-5.633424E-2,-4.9700476E-2,2.2186235E-2],"split_indices":[23,18,22,29,22,28,5,0,27,21,27,21,17,2,9,0,0,0,0,0,0,0,0,0,0,0,0,0,0],"split_type":[0,0,0,0,0,0,0,0,0,0,0,0,0,0,0,0,0,0,0,0,0,0,0,0,0,0,0,0,0],"sum_hessian":[1.100762E3,6.845023E2,4.162597E2,1.654611E2,5.190412E2,2.8378888E2,1.3247081E2,1.3237538E2,3.3085716E1,3.9306757E2,1.2597364E2,1.1249714E2,1.7129175E2,1.2335594E2,9.114877E0,1.3151192E1,1.9934526E1,3.126546E2,8.041299E1,4.8828064E1,7.714558E1,8.782891E1,2.4668226E1,1.566931E2,1.4598648E1,1.2457849E1,1.10898094E2,5.79795E0,3.3169267E0],"tree_param":{"num_deleted":"0","num_feature":"31","num_nodes":"29","size_leaf_vector":"1"}},{"base_weights":[1.130517E-2,-2.4738818E-1,3.3315846E-1,-3.580286E-1,1.3695568E-1,2.112163E-1,5.5552715E-1,-4.474515E-1,2.441202E-2,2.052259E-1,-2.1117795E-1,3.6469024E-1,6.5763555E-2,4.006212E-1,5.688457E-1,-5.2567672E-2,-3.6472537E-2,9.495688E-3,-4.377649E-2,2.6293054E-2,-2.04909E-2,-4.9429704E-3,-6.6206954E-2,4.4892922E-2,1.9386886E-2,-3.0990094E-3,4.12366E-2,5.6242485E-2,-4.899847E-3,5.7409164E-2,2.4376435E-2],"categories":[],"categories_nodes":[],"categories_segments":[],"categories_sizes":[],"default_left":[0,0,0,0,0,0,0,0,0,0,0,0,0,0,0,0,0,0,0,0,0,0,0,0,0,0,0,0,0,0,0],"id":49,"left_children":[1,3,5,7,9,11,13,15,17,19,21,23,25,27,29,-1,-1,-1,-1,-1,-1,-1,-1,-1,-1,-1,-1,-1,-1,-1,-1],"loss_changes":[9.039731E1,2.564579E1,1.3000874E1,1.6004646E1,3.258327E0,6.9867506E0,1.2433624E-1,2.2614746E0,2.96212E0,2.7424006E0,1.6206663E0,2.1087685E0,5.4609327E0,1.2568767E0,1.2408447E-1,0E0,0E0,0E0,0E0,0E0,0E0,0E0,0E0,0E0,0E0,0E0,0E0,0E0,0E0,0E0,0E0],"parents":[2147483647,0,0,1,1,2,2,3,3,4,4,5,5,6,6,7,7,8,8,9,9,10,10,11,11,12,12,13,13,14,14],"right_children":[2,4,6,8,10,12,14,16,18,20,22,24,26,28,30,-1,-1,-1,-1,-1,-1,-1,-1,-1,-1,-1,-1,-1,-1,-1,-1],"split_conditions":[1E0,1E0,1E0,1E0,1E0,6E0,5.28E1,1E0,1E0,1E0,1E0,1E0,1E0,5.11E1,9.41E1,-5.2567672E-2,-3.6472537E-2,9.495688E-3,-4.377649E-2,2.6293054E-2,-2.04909E-2,-4.9429704E-3,-6.6206954E-2,4.4892922E-2,1.9386886E-2,-3.0990094E-3,4.12366E-2,5.6242485E-2,-4.899847E-3,5.7409164E-2,2.4376435E-2],"split_indices":[23,22,22,25,13,19,2,0,10,10,24,13,25,2,2,0,0,0,0,0,0,0,0,0,0,0,0,0,0,0,0],"split_type":[0,0,0,0,0,0,0,0,0,0,0,0,0,0,0,0,0,0,0,0,0,0,0,0,0,0,0,0,0,0,0],"sum_hessian":[1.0837162E3,6.009372E2,4.8277896E2,4.6666705E2,1.3427017E2,3.130558E2,1.6972318E2,3.7809113E2,8.857591E1,1.1259951E2,2.1670664E1,1.515943E2,1.6146147E2,1.5897836E1,1.5382533E2,1.9158011E2,1.8651103E2,7.753571E1,1.10402E1,9.902582E1,1.3573692E1,1.6765873E1,4.904792E0,1.0043678E2,5.1157513E1,1.2693759E2,3.4523888E1,1.1506226E1,4.3916097E0,1.5062862E2,3.196725E0],"tree_param":{"num_deleted":"0","num_feature":"31","num_nodes":"31","size_leaf_vector":"1"}},{"base_weights":[5.0789315E-2,-2.2952498E-1,3.419959E-1,-4.6479622E-1,2.6039916E-1,4.3103606E-1,-9.946136E-2,-5.1154017E-2,-4.151965E-1,3.9960626E-1,-1.2400529E-1,2.9669294E-1,6.000794E-1,1.9615763E-1,-3.6653593E-1,-3.531014E-2,-5.0430126E-2,5.2955218E-2,-1.7307283E-2,-4.0083822E-2,1.9766843E-2,3.7982427E-2,-1.9348396E-2,6.448694E-2,-1.2353455E-2,6.647231E-2,-1.2796071E-2,-4.5097128E-2,1.09034525E-2],"categories":[],"categories_nodes":[],"categories_segments":[],"categories_sizes":[],"default_left":[0,0,0,0,0,0,0,0,0,0,0,0,0,0,0,0,0,0,0,0,0,0,0,0,0,0,0,0,0],"id":50,"left_children":[1,3,5,7,9,11,13,-1,15,17,19,21,23,25,27,-1,-1,-1,-1,-1,-1,-1,-1,-1,-1,-1,-1,-1,-1],"loss_changes":[3.6550583E1,2.6431042E1,8.6726E0,1.4596176E-1,4.046511E0,3.9752007E0,3.0453584E0,0E0,2.6623058E-1,4.1899576E0,1.9155314E0,4.306426E0,2.6726704E0,2.8987474E0,8.5767484E-1,0E0,0E0,0E0,0E0,0E0,0E0,0E0,0E0,0E0,0E0,0E0,0E0,0E0,0E0],"parents":[2147483647,0,0,1,1,2,2,3,3,4,4,5,5,6,6,8,8,9,9,10,10,11,11,12,12,13,13,14,14],"right_children":[2,4,6,8,10,12,14,-1,16,18,20,22,24,26,28,-1,-1,-1,-1,-1,-1,-1,-1,-1,-1,-1,-1,-1,-1],"split_conditions":[1E0,1E0,1E0,1E0,1E0,1E0,1E0,-5.1154017E-2,7.29E1,1E0,2.7E2,1E0,1E0,1E0,1.89E2,-3.531014E-2,-5.0430126E-2,5.2955218E-2,-1.7307283E-2,-4.0083822E-2,1.9766843E-2,3.7982427E-2,-1.9348396E-2,6.448694E-2,-1.2353455E-2,6.647231E-2,-1.2796071E-2,-4.5097128E-2,1.09034525E-2],"split_indices":[20,21,22,0,23,21,23,0,2,29,6,25,12,28,3,0,0,0,0,0,0,0,0,0,0,0,0,0,0],"split_type":[0,0,0,0,0,0,0,0,0,0,0,0,0,0,0,0,0,0,0,0,0,0,0,0,0,0,0,0,0],"sum_hessian":[4.4580103E2,2.2725656E2,2.1854445E2,1.5356358E2,7.369298E1,1.8188298E2,3.6661465E1,7.4263016E1,7.9300575E1,5.4071968E1,1.9621012E1,1.0287816E2,7.900482E1,1.7526878E1,1.9134586E1,4.9657883E1,2.964269E1,4.413309E1,9.938876E0,1.041325E1,9.207762E0,8.8153015E1,1.47251425E1,7.450214E1,4.5026846E0,6.7368326E0,1.0790045E1,1.629348E1,2.841107E0],"tree_param":{"num_deleted":"0","num_feature":"31","num_nodes":"29","size_leaf_vector":"1"}},{"base_weights":[-6.696013E-3,1.854195E-1,-3.3449754E-1,4.7193977E-1,9.285154E-2,-2.4584885E-1,-5.260073E-1,5.5398323E-2,1.7768122E-1,1.731729E-1,-1.2801279E-1,-1.6513129E-1,-5.3921235E-1,-2.7786702E-1,-5.476171E-1,3.164548E-2,-1.824034E-2,2.5038663E-2,-5.0948574E-3,1.9484207E-2,-2.2427892E-2,-2.103611E-2,3.196158E-2,-4.487454E-2,-6.5207385E-2,-5.136596E-2,3.967262E-2,-5.634703E-2,-3.341767E-2],"categories":[],"categories_nodes":[],"categories_segments":[],"categories_sizes":[],"default_left":[0,0,0,0,0,0,0,0,0,0,0,0,0,0,0,0,0,0,0,0,0,0,0,0,0,0,0,0,0],"id":51,"left_children":[1,3,5,7,9,11,13,-1,15,17,19,21,23,25,27,-1,-1,-1,-1,-1,-1,-1,-1,-1,-1,-1,-1,-1,-1],"loss_changes":[6.6380165E1,1.758294E1,6.482918E0,3.8135262E0,8.95529E0,6.259857E0,5.039749E-1,0E0,1.8966731E0,6.4103346E0,4.235298E0,4.7088795E0,2.9357147E-1,2.0859299E0,1.8908691E-1,0E0,0E0,0E0,0E0,0E0,0E0,0E0,0E0,0E0,0E0,0E0,0E0,0E0,0E0],"parents":[2147483647,0,0,1,1,2,2,3,3,4,4,5,5,6,6,8,8,9,9,10,10,11,11,12,12,13,13,14,14],"right_children":[2,4,6,8,10,12,14,-1,16,18,20,22,24,26,28,-1,-1,-1,-1,-1,-1,-1,-1,-1,-1,-1,-1,-1,-1],"split_conditions":[1E0,1E0,1E0,1E0,1E0,1E0,5.28E1,5.5398323E-2,1E0,1E0,5.94E1,1E0,1.79E2,5.11E1,1E0,3.164548E-2,-1.824034E-2,2.5038663E-2,-5.0948574E-3,1.9484207E-2,-2.2427892E-2,-2.103611E-2,3.196158E-2,-4.487454E-2,-6.5207385E-2,-5.136596E-2,3.967262E-2,